{"learner":{"attributes":{"best_iteration":"99","best_ntree_limit":"100","scikit_learn":"{\"n_estimators\": 100, \"objective\": \"reg:squarederror\", \"max_depth\": null, \"max_leaves\": null, \"max_bin\": null, \"grow_policy\": null, \"learning_rate\": null, \"verbosity\": null, \"booster\": null, \"tree_method\": null, \"gamma\": null, \"min_child_weight\": null, \"max_delta_step\": null, \"subsample\": null, \"sampling_method\": null, \"colsample_bytree\": null, \"colsample_bylevel\": null, \"colsample_bynode\": null, \"reg_alpha\": null, \"reg_lambda\": null, \"scale_pos_weight\": null, \"base_score\": null, \"missing\": NaN, \"num_parallel_tree\": null, \"random_state\": null, \"n_jobs\": null, \"monotone_constraints\": null, \"interaction_constraints\": null, \"importance_type\": null, \"gpu_id\": null, \"validate_parameters\": null, \"predictor\": null, \"enable_categorical\": false, \"feature_types\": null, \"max_cat_to_onehot\": null, \"max_cat_threshold\": null, \"eval_metric\": null, \"early_stopping_rounds\": null, \"callbacks\": null, \"_estimator_type\": \"regressor\"}"},"feature_names":["Design_flow(l/s)","Actual_flow(l/s)"],"feature_types":["int","int"],"gradient_booster":{"model":{"gbtree_model_param":{"num_parallel_tree":"1","num_trees":"100","size_leaf_vector":"0"},"tree_info":[0,0,0,0,0,0,0,0,0,0,0,0,0,0,0,0,0,0,0,0,0,0,0,0,0,0,0,0,0,0,0,0,0,0,0,0,0,0,0,0,0,0,0,0,0,0,0,0,0,0,0,0,0,0,0,0,0,0,0,0,0,0,0,0,0,0,0,0,0,0,0,0,0,0,0,0,0,0,0,0,0,0,0,0,0,0,0,0,0,0,0,0,0,0,0,0,0,0,0,0],"trees":[{"base_weights":[1.0564333E2,1.173616E2,1.0346138E2,1.1209462E2,1.4864368E2,1.067309E2,1.1777976E2],"categories":[],"categories_nodes":[],"categories_segments":[],"categories_sizes":[],"default_left":[1,1,0,1,0,0,0],"id":0,"left_children":[1,3,-1,5,-1,-1,-1],"loss_changes":[9.0876E4,8.6314E4,0E0,3.865E3,0E0,0E0,0E0],"parents":[2147483647,0,0,1,1,3,3],"right_children":[2,4,-1,6,-1,-1,-1],"split_conditions":[9.95E1,1.285E2,3.1038416E1,1.095E2,4.4593105E1,3.201927E1,3.533393E1],"split_indices":[0,1,0,1,0,0,0],"split_type":[0,0,0,0,0,0,0],"sum_hessian":[4.028E3,6.24E2,3.404E3,5.38E2,8.6E1,2.87E2,2.51E2],"tree_param":{"num_deleted":"0","num_feature":"2","num_nodes":"7","size_leaf_vector":"0"}},{"base_weights":[7.3985825E1,8.233223E1,7.243208E1,7.843275E1,1.0379558E2,7.313744E1,7.020512E1,7.287388E1,8.120242E1,7.144875E1,7.458201E1,8.702046E1,7.28363E1],"categories":[],"categories_nodes":[],"categories_segments":[],"categories_sizes":[],"default_left":[1,1,1,1,0,1,0,0,0,0,1,0,0],"id":1,"left_children":[1,3,5,7,-1,9,-1,-1,-1,-1,11,-1,-1],"loss_changes":[4.6284E4,4.41695E4,2.14E2,2.28875E3,0E0,9.21E2,0E0,0E0,0E0,0E0,2.3149E4,0E0,0E0],"parents":[2147483647,0,0,1,1,2,2,3,3,5,5,10,10],"right_children":[2,4,6,8,-1,10,-1,-1,-1,-1,12,-1,-1],"split_conditions":[9.95E1,1.225E2,3.59E2,1.065E2,3.1138674E1,2.195E2,2.1061535E1,2.1862164E1,2.4360727E1,2.1434628E1,2.115E2,2.610614E1,2.1850891E1],"split_indices":[0,1,0,1,0,1,0,0,0,0,0,0,0],"split_type":[0,0,0,0,0,0,0,0,0,0,0,0,0],"sum_hessian":[4.028E3,6.24E2,3.404E3,5.32E2,9.2E1,2.561E3,8.43E2,1.86E2,3.46E2,1.204E3,1.357E3,1.61E2,1.196E3],"tree_param":{"num_deleted":"0","num_feature":"2","num_nodes":"13","size_leaf_vector":"0"}},{"base_weights":[5.1831726E1,5.775634E1,5.072902E1,5.51605E1,7.4999E1,5.163332E1,4.9642998E1,5.267228E1,6.0191723E1,5.012871E1,5.5914646E1,6.368589E1,5.2990433E1,5.0819504E1,6.4033134E1],"categories":[],"categories_nodes":[],"categories_segments":[],"categories_sizes":[],"default_left":[1,1,1,1,0,1,0,0,0,0,1,0,1,0,0],"id":2,"left_children":[1,3,5,7,-1,9,-1,-1,-1,-1,11,-1,13,-1,-1],"loss_changes":[2.3392E4,2.38375E4,7.8E2,3.67725E3,0E0,9.005E3,0E0,0E0,0E0,0E0,7.2605E3,0E0,5.0405E3,0E0,0E0],"parents":[2147483647,0,0,1,1,2,2,3,3,5,5,10,10,12,12],"right_children":[2,4,6,8,-1,10,-1,-1,-1,-1,12,-1,14,-1,-1],"split_conditions":[9.95E1,1.365E2,2.605E2,1.135E2,2.24997E1,2.275E2,1.48928995E1,1.5801684E1,1.8057518E1,1.5038614E1,2.125E2,1.9105768E1,2.805E2,1.52458515E1,1.9209942E1],"split_indices":[0,1,0,1,0,1,0,0,0,0,0,0,1,0,0],"split_type":[0,0,0,0,0,0,0,0,0,0,0,0,0,0,0],"sum_hessian":[4.028E3,6.24E2,3.404E3,5.46E2,7.8E1,1.832E3,1.572E3,3.73E2,1.73E2,1.365E3,4.67E2,1.22E2,3.45E2,2.93E2,5.2E1],"tree_param":{"num_deleted":"0","num_feature":"2","num_nodes":"15","size_leaf_vector":"0"}},{"base_weights":[3.631692E1,4.0519615E1,3.5534836E1,3.8901558E1,5.538261E1,3.1763626E1,3.5672447E1,3.2736294E1,4.0088673E1,3.649373E1,3.4759567E1,3.8595398E1,4.3412327E1,3.5916553E1,4.288837E1,3.636931E1,3.378386E1,5.292139E1,3.991761E1,3.56861E1,4.3255352E1],"categories":[],"categories_nodes":[],"categories_segments":[],"categories_sizes":[],"default_left":[1,1,1,1,0,0,1,0,1,1,0,0,0,1,1,1,0,0,0,0,0],"id":3,"left_children":[1,3,5,7,-1,-1,9,-1,11,13,-1,-1,-1,15,17,19,-1,-1,-1,-1,-1],"loss_changes":[1.1803E4,1.287625E4,6.34E2,2.8375E3,0E0,0E0,1.18825E3,0E0,6.62E2,4.7525E3,0E0,0E0,0E0,2.87125E2,1.9410938E3,4.487625E3,0E0,0E0,0E0,0E0,0E0],"parents":[2147483647,0,0,1,1,2,2,3,3,6,6,8,8,9,9,13,13,14,14,15,15],"right_children":[2,4,6,8,-1,-1,10,-1,12,14,-1,-1,-1,16,18,20,-1,-1,-1,-1,-1],"split_conditions":[9.95E1,1.42E2,1.185E2,1.025E2,1.6614784E1,9.529088E0,2.605E2,9.8208885E0,1.155E2,2.665E2,1.0427871E1,1.157862E1,1.3023699E1,2.145E2,2.375E2,2.305E2,1.0135159E1,1.5876418E1,1.1975284E1,1.0705831E1,1.2976606E1],"split_indices":[0,1,1,1,0,0,0,0,1,1,0,0,0,0,0,1,0,0,0,0,0],"split_type":[0,0,0,0,0,0,0,0,0,0,0,0,0,0,0,0,0,0,0,0,0],"sum_hessian":[4.028E3,6.24E2,3.404E3,5.66E2,5.8E1,1.28E2,3.276E3,9.6E1,4.7E2,1.704E3,1.572E3,3.33E2,1.37E2,1.569E3,1.35E2,1.281E3,2.88E2,2.7E1,1.08E2,1.171E3,1.1E2],"tree_param":{"num_deleted":"0","num_feature":"2","num_nodes":"21","size_leaf_vector":"0"}},{"base_weights":[2.545477E1,2.8445389E1,2.4898355E1,2.7364664E1,4.0072285E1,2.5173435E1,2.3548738E1,2.5676748E1,2.9952198E1,2.513723E1,5.0719517E1,2.3050718E1,2.7231903E1,2.2384932E1,2.6420881E1,2.3605679E1,2.5476852E1,1.9101198E1,2.3344002E1,2.3910677E1,1.59223995E1,3.694133E1,2.5282442E1,1.9984636E1,2.4207338E1,2.8019224E1,2.507121E1],"categories":[],"categories_nodes":[],"categories_segments":[],"categories_sizes":[],"default_left":[1,1,1,1,0,1,1,1,0,1,0,1,0,0,0,1,1,0,0,1,0,0,1,0,0,0,0],"id":4,"left_children":[1,3,5,7,-1,9,11,13,-1,15,-1,17,-1,-1,-1,19,21,-1,-1,23,-1,-1,25,-1,-1,-1,-1],"loss_changes":[5.99575E3,6.7568438E3,6.715E2,1.7422812E3,0E0,1.32775E3,4.5815625E2,2.7815625E2,0E0,8.6125E2,0E0,1.656875E2,0E0,0E0,0E0,8.4725E2,4.167875E3,0E0,0E0,1.0090625E2,0E0,0E0,6.005E2,0E0,0E0,0E0,0E0],"parents":[2147483647,0,0,1,1,2,2,3,3,5,5,6,6,7,7,9,9,11,11,15,15,16,16,19,19,22,22],"right_children":[2,4,6,8,-1,10,12,14,-1,16,-1,18,-1,-1,-1,20,22,-1,-1,24,-1,-1,26,-1,-1,-1,-1],"split_conditions":[9.95E1,1.455E2,4.78E2,1.125E2,1.2021686E1,5.685E2,7.095E2,9.95E1,8.98566E0,1.685E2,1.5215856E1,4.915E2,8.169571E0,6.71548E0,7.926265E0,1.665E2,1.59E2,5.7303596E0,7.003201E0,1.135E2,4.77672E0,1.1082399E1,1.725E2,5.995391E0,7.262202E0,8.405767E0,7.5213637E0],"split_indices":[0,1,0,1,0,1,1,1,0,1,0,1,0,0,0,0,0,0,0,1,0,0,0,0,0,0,0],"split_type":[0,0,0,0,0,0,0,0,0,0,0,0,0,0,0,0,0,0,0,0,0,0,0,0,0,0,0],"sum_hessian":[4.028E3,6.24E2,3.404E3,5.74E2,5E1,2.813E3,5.91E2,3.54E2,2.2E2,2.811E3,2E0,5.27E2,6.4E1,7.1E1,2.83E2,5.23E2,2.288E3,4.1E1,4.86E2,5.01E2,2.2E1,3.5E1,2.253E3,4E1,4.61E2,1.52E2,2.101E3],"tree_param":{"num_deleted":"0","num_feature":"2","num_nodes":"27","size_leaf_vector":"0"}},{"base_weights":[1.7847332E1,1.993495E1,1.7427233E1,1.8602497E1,2.5306158E1,1.4958998E1,1.7533033E1,1.6042074E1,1.9128107E1,2.3478392E1,3.0385855E1,1.9314568E1,1.736662E1,8.224408E0,1.6287247E1,1.8206236E1,2.712914E1,1.4356927E1,1.7537308E1,9.040308E0,1.4831484E1,1.9653337E1,1.7255209E1,1.6709385E1,2.1172363E1,1.1580919E1,1.7469866E1],"categories":[],"categories_nodes":[],"categories_segments":[],"categories_sizes":[],"default_left":[1,1,1,1,1,0,1,1,0,0,0,1,1,0,0,0,0,1,1,0,0,1,1,0,0,0,0],"id":5,"left_children":[1,3,5,7,9,-1,11,13,-1,-1,-1,15,17,-1,-1,-1,-1,19,21,-1,-1,23,25,-1,-1,-1,-1],"loss_changes":[3.186125E3,4.3100625E3,6.15625E2,4.1853125E2,4.935703E2,0E0,6.18625E2,5.3882812E1,0E0,0E0,0E0,1.8099375E3,1.26525E3,0E0,0E0,0E0,0E0,2.7969922E2,1.3263125E3,0E0,0E0,1.0817188E3,2.8061875E3,0E0,0E0,0E0,0E0],"parents":[2147483647,0,0,1,1,2,2,3,3,4,4,6,6,7,7,11,11,12,12,17,17,18,18,21,21,22,22],"right_children":[2,4,6,8,10,-1,12,14,-1,-1,-1,16,18,-1,-1,-1,-1,20,22,-1,-1,24,26,-1,-1,-1,-1],"split_conditions":[1.115E2,1.185E2,1.205E2,1.025E2,1.495E2,4.4876995E0,1.59E2,4.3E1,5.7384324E0,7.0435176E0,9.115757E0,1.705E2,1.735E2,2.4673226E0,4.886174E0,5.461871E0,8.138742E0,1.595E2,1.995E2,2.7120924E0,4.4494452E0,1.825E2,2.025E2,5.0128155E0,6.3517094E0,3.4742758E0,5.24096E0],"split_indices":[0,1,1,1,1,0,0,0,0,0,0,1,1,0,0,0,0,1,0,0,0,1,1,0,0,0,0],"split_type":[0,0,0,0,0,0,0,0,0,0,0,0,0,0,0,0,0,0,0,0,0,0,0,0,0,0,0],"sum_hessian":[4.028E3,6.67E2,3.361E3,5.38E2,1.29E2,1.44E2,3.217E3,9.7E1,4.41E2,9.9E1,3E1,2.65E2,2.952E3,4E0,9.3E1,2.35E2,3E1,1.63E2,2.789E3,1.5E1,1.48E2,3.2E2,2.469E3,1.13E2,2.07E2,9.2E1,2.377E3],"tree_param":{"num_deleted":"0","num_feature":"2","num_nodes":"27","size_leaf_vector":"0"}},{"base_weights":[1.2511643E1,1.3993347E1,1.2204475E1,1.2925922E1,1.7500824E1,1.2436283E1,1.1378787E1,1.1493034E1,1.3336256E1,1.6266556E1,2.1338371E1,1.2325404E1,1.7437843E1,6.8458104E0,1.16262665E1,1.218742E1,9.83062E0,1.1688983E1,1.2918862E1,1.6342289E1,3.0614853E1,1.8535645E0,7.3354163E0,1.54493065E1,1.1379198E1,9.71437E0,1.3250474E1,4.9952774E0,1.0349037E1,1.2487364E1,1.0617066E1,1.6857004E1,1.1917287E1,2.544637E0,5.44637E-1,1.2984065E1,3.439047E1,1.0952245E1,1.3393305E1,1.615188E1,1.199768E1,1.0477471E1,2.8627129E0,1.1647359E1,1.7395433E1,7.8468523E0,1.1586062E1,1.4559802E1,2.2636576E1,1.0425641E1,1.2845808E1,1.5847778E-1,6.584778E-1,1.1423752E1,8.665062E0,1.8467134E1,1.1874595E1],"categories":[],"categories_nodes":[],"categories_segments":[],"categories_sizes":[],"default_left":[1,1,1,1,1,1,1,1,0,0,0,1,1,1,1,1,1,1,1,0,0,1,0,1,1,0,1,0,1,1,1,1,1,0,1,0,0,1,1,0,0,0,0,0,0,0,0,0,0,0,0,0,0,0,0,0,0],"id":6,"left_children":[1,3,5,7,9,11,13,15,-1,-1,-1,17,19,21,23,25,27,29,31,-1,-1,33,-1,35,37,-1,39,-1,41,43,45,47,49,-1,51,-1,-1,53,55,-1,-1,-1,-1,-1,-1,-1,-1,-1,-1,-1,-1,-1,-1,-1,-1,-1,-1],"loss_changes":[1.6629375E3,2.3384062E3,4.9871875E2,1.5775E2,3.9653906E2,1.2275E3,7.561719E2,2.4486328E1,0E0,0E0,0E0,8.1134375E2,2.7923633E2,8.661682E1,4.9010156E2,9.211426E1,5.3585693E1,9.286094E2,4.96225E3,0E0,0E0,3.1369152E0,0E0,1.4212539E3,4.2602344E2,0E0,9.767578E0,0E0,5.581543E0,2.7039688E3,1.3478867E3,3.1622266E3,1.3162031E3,0E0,2.7527928E-2,0E0,0E0,4.9953125E2,6.437461E2,0E0,0E0,0E0,0E0,0E0,0E0,0E0,0E0,0E0,0E0,0E0,0E0,0E0,0E0,0E0,0E0,0E0,0E0],"parents":[2147483647,0,0,1,1,2,2,3,3,4,4,5,5,6,6,7,7,11,11,12,12,13,13,14,14,15,15,16,16,17,17,18,18,21,21,23,23,24,24,26,26,28,28,29,29,30,30,31,31,32,32,34,34,37,37,38,38],"right_children":[2,4,6,8,10,12,14,16,-1,-1,-1,18,20,22,24,26,28,30,32,-1,-1,34,-1,36,38,-1,40,-1,42,44,46,48,50,-1,52,-1,-1,54,56,-1,-1,-1,-1,-1,-1,-1,-1,-1,-1,-1,-1,-1,-1,-1,-1,-1,-1],"split_conditions":[1.155E2,1.175E2,3.74E2,1.045E2,1.485E2,3.815E2,3.915E2,9.6E1,4.000877E0,4.8799667E0,6.4015117E0,2.235E2,4.31E2,3.585E2,4.045E2,8.55E1,9.65E1,1.835E2,2.265E2,4.902687E0,9.184456E0,3.835E2,2.200625E0,4.4E2,6.875E2,2.914311E0,8.75E1,1.4985833E0,1.06E2,1.795E2,1.985E2,2.435E2,2.765E2,7.6339114E-1,3.555E2,3.8952196E0,1.0317141E1,6.175E2,6.75E2,4.8455644E0,3.599304E0,3.1432416E0,8.588139E-1,3.4942079E0,5.2186303E0,2.354056E0,3.4758189E0,4.367941E0,6.790973E0,3.1276925E0,3.8537426E0,4.7543336E-2,1.9754334E-1,3.4271257E0,2.5995188E0,5.5401406E0,3.5623786E0],"split_indices":[0,1,0,1,1,1,1,0,0,0,0,1,1,1,0,1,1,0,0,0,0,0,0,1,1,0,0,0,0,1,1,1,1,0,1,0,0,0,0,0,0,0,0,0,0,0,0,0,0,0,0,0,0,0,0,0,0],"split_type":[0,0,0,0,0,0,0,0,0,0,0,0,0,0,0,0,0,0,0,0,0,0,0,0,0,0,0,0,0,0,0,0,0,0,0,0,0,0,0,0,0,0,0,0,0,0,0,0,0,0,0,0,0,0,0,0,0],"sum_hessian":[4.028E3,6.84E2,3.344E3,5.28E2,1.56E2,2.6E3,7.44E2,1.24E2,4.04E2,1.22E2,3.4E1,2.547E3,5.3E1,4E1,7.04E2,8.3E1,4.1E1,1.239E3,1.308E3,5.1E1,2E0,4E0,3.6E1,3.9E1,6.65E2,2.8E1,5.5E1,5E0,3.6E1,7.04E2,5.35E2,2.62E2,1.046E3,2E0,2E0,3.6E1,3E0,5.54E2,1.11E2,1.3E1,4.2E1,3.5E1,1E0,6.04E2,1E2,1.41E2,3.94E2,1.9E2,7.2E1,4.06E2,6.4E2,1E0,1E0,4.56E2,9.8E1,2.3E1,8.8E1],"tree_param":{"num_deleted":"0","num_feature":"2","num_nodes":"57","size_leaf_vector":"0"}},{"base_weights":[8.785815E0,9.109806E0,8.020766E0,8.953129E0,1.7129515E1,3.0040526E0,8.257672E0,9.299314E0,8.189832E0,2.3809206E1,1.5937688E1,4.030815E0,-3.6603737E0,1.0364535E1,8.086525E0,9.061757E0,1.4802768E1,4.141447E0,8.494219E0,1.3324711E1,1.866272E1,-6.500788E-1,4.826442E0,7.5903006E0,1.1872438E1,4.566926E0,8.276397E0,9.470661E0,8.143942E0,1.2940493E1,1.6285486E1,2.257885E0,5.0294685E0,8.122323E0,1.1028121E1,-2.0667267E0,1.6659164E-1,5.1016135E0,9.369068E-1,7.926484E0,3.255394E0,5.9898543E-1,5.202529E0,1.1382867E1,8.089801E0,9.1935215E0,1.3479815E1,6.99314E0,1.0572218E1,1.4342272E1,9.412869E0,-2.0335922E0,2.5590787E0,5.2929854E0,2.9557452E0,8.807101E0,7.7080226E0,-4.0006003E-1,5.499325E-1,2.7591648E0,5.5278006E0,1.5615488E0,-9.94606E-1,5.636662E0,2.548279E-1,2.4671574E1,1.0679898E1,5.207172E0,8.422675E0],"categories":[],"categories_nodes":[],"categories_segments":[],"categories_sizes":[],"default_left":[1,1,1,1,1,1,1,1,1,0,1,1,0,1,1,1,1,1,1,0,0,1,1,1,0,1,1,1,1,1,0,1,1,1,0,0,1,1,0,0,0,1,1,1,1,0,0,0,0,0,0,0,0,0,0,0,0,0,0,0,0,0,0,0,0,0,0,0,0],"id":7,"left_children":[1,3,5,7,9,11,13,15,17,-1,19,21,-1,23,25,27,29,31,33,-1,-1,35,37,39,-1,41,43,45,47,49,-1,51,53,55,-1,-1,57,59,-1,-1,-1,61,63,65,67,-1,-1,-1,-1,-1,-1,-1,-1,-1,-1,-1,-1,-1,-1,-1,-1,-1,-1,-1,-1,-1,-1,-1,-1],"loss_changes":[9.25625E2,3.39375E3,1.4097031E3,6.560469E2,4.2469727E1,3.979501E2,3.315703E2,2.3485781E3,1.0406055E3,0E0,9.3106445E1,1.8562561E2,0E0,2.5709668E2,6.772578E2,6.0703125E2,1.8730469E0,9.402063E1,6.746719E2,0E0,0E0,9.599775E0,4.0172424E1,2.0830566E1,0E0,1.4063965E2,4.956797E2,1.2705E3,1.5161172E3,5.7850586E1,0E0,3.364058E1,7.3066406E0,1.3382422E2,0E0,0E0,1.5233303E0,2.3682434E1,0E0,0E0,0E0,1.5358521E1,1.0381372E2,2.5029492E2,8.773125E2,0E0,0E0,0E0,0E0,0E0,0E0,0E0,0E0,0E0,0E0,0E0,0E0,0E0,0E0,0E0,0E0,0E0,0E0,0E0,0E0,0E0,0E0,0E0,0E0],"parents":[2147483647,0,0,1,1,2,2,3,3,4,4,5,5,6,6,7,7,8,8,10,10,11,11,13,13,14,14,15,15,16,16,17,17,18,18,21,21,22,22,23,23,25,25,26,26,27,27,28,28,29,29,31,31,32,32,33,33,36,36,37,37,41,41,42,42,43,43,44,44],"right_children":[2,4,6,8,10,12,14,16,18,-1,20,22,-1,24,26,28,30,32,34,-1,-1,36,38,40,-1,42,44,46,48,50,-1,52,54,56,-1,-1,58,60,-1,-1,-1,62,64,66,68,-1,-1,-1,-1,-1,-1,-1,-1,-1,-1,-1,-1,-1,-1,-1,-1,-1,-1,-1,-1,-1,-1,-1,-1],"split_conditions":[2.765E2,2.935E2,2.885E2,2.115E2,2.39E2,3.035E2,2.975E2,2.385E2,2.175E2,7.142762E0,3.01E2,2.72E2,-1.0981121E0,2.965E2,3.415E2,1.655E2,2.555E2,2.125E2,2.835E2,3.9974134E0,5.598816E0,2.6E2,2.855E2,2.91E2,3.5617316E0,2.985E2,3.36E2,1.755E2,2.095E2,2.06E2,4.885646E0,1.965E2,2.18E2,2.495E2,3.3084364E0,-6.20018E-1,2.62E2,2.78E2,2.8107205E-1,2.3779454E0,9.7661823E-1,3.08E2,3.44E2,3.145E2,3.695E2,2.7580566E0,4.0439444E0,2.097942E0,3.1716654E0,4.302682E0,2.823861E0,-6.100777E-1,7.677236E-1,1.5878958E0,8.867236E-1,2.6421304E0,2.3124068E0,-1.2001801E-1,1.6497976E-1,8.277495E-1,1.6583402E0,4.6846467E-1,-2.983818E-1,1.6909987E0,7.6448366E-2,7.4014726E0,3.2039697E0,1.5621517E0,2.5268025E0],"split_indices":[0,1,1,0,0,0,0,1,1,0,1,1,0,1,1,0,1,1,1,0,0,1,0,0,0,1,0,1,1,0,0,1,0,0,0,0,1,1,0,0,0,0,0,0,1,0,0,0,0,0,0,0,0,0,0,0,0,0,0,0,0,0,0,0,0,0,0,0,0],"split_type":[0,0,0,0,0,0,0,0,0,0,0,0,0,0,0,0,0,0,0,0,0,0,0,0,0,0,0,0,0,0,0,0,0,0,0,0,0,0,0,0,0,0,0,0,0,0,0,0,0,0,0,0,0,0,0,0,0,0,0,0,0,0,0,0,0,0,0,0,0],"sum_hessian":[4.028E3,2.822E3,1.206E3,2.77E3,5.2E1,5.5E1,1.151E3,1.898E3,8.72E2,5E0,4.7E1,4.8E1,7E0,8.2E1,1.069E3,1.822E3,7.6E1,6.2E1,8.1E2,2.7E1,2E1,7E0,4.1E1,3.1E1,5.1E1,5.6E1,1.013E3,1.254E3,5.68E2,3.8E1,3.8E1,2.1E1,4.1E1,7.1E2,1E2,2E0,5E0,3.8E1,3E0,2.8E1,3E0,8E0,4.8E1,5.4E1,9.59E2,1.176E3,7.8E1,3.88E2,1.8E2,2.5E1,1.3E1,1E0,2E1,3.5E1,6E0,2.6E2,4.5E2,2E0,3E0,7E0,3.1E1,5E0,3E0,4.4E1,4E0,1E0,5.3E1,1.01E2,8.58E2],"tree_param":{"num_deleted":"0","num_feature":"2","num_nodes":"69","size_leaf_vector":"0"}},{"base_weights":[6.1690235E0,7.131587E0,5.986831E0,6.327597E0,9.4258175E0,3.4903708E0,6.0429616E0,5.9441276E0,7.2090235E0,8.801436E0,1.49996195E1,4.764647E0,2.6212318E0,6.181625E0,5.3445225E0,4.0801E0,6.0744367E0,8.365423E0,1.0191247E1,2.2520173E0,6.1008005E0,1.0879042E0,2.9006999E0,6.1551056E0,2.8519012E1,4.3833246E0,6.372103E0,5.535912E0,2.7404978E0,9.798687E0,5.9441977E0,3.5835013E-1,2.5949159E0,5.791138E-1,1.3791138E0,2.9377155E0,7.285423E-1,6.1155643E0,9.931056E0,5.5273275E0,3.5128505E0,7.79952E0,5.0412235E0,1.7126526E0,7.4759674E0,1.7756958E-1,3.6563292E0,4.552651E0,6.1937394E0,1.0542793E0,-5.1675415E-1,6.1974835E0,4.767886E0,2.2076824E0,6.5633025E0,7.703725E-1,3.9869175E0,6.6697845E0,1.0944992E1,2.7910738E0,5.8742113E0],"categories":[],"categories_nodes":[],"categories_segments":[],"categories_sizes":[],"default_left":[1,1,1,1,1,1,1,1,0,1,0,1,1,1,1,1,1,0,0,1,0,1,1,1,0,1,1,1,1,0,1,1,0,0,0,0,0,1,0,1,1,1,1,0,0,0,0,0,0,0,0,0,0,0,0,0,0,0,0,0,0],"id":8,"left_children":[1,3,5,7,9,11,13,15,-1,17,-1,19,21,23,25,27,29,-1,-1,31,-1,33,35,37,-1,39,41,43,45,-1,47,49,-1,-1,-1,-1,-1,51,-1,53,55,57,59,-1,-1,-1,-1,-1,-1,-1,-1,-1,-1,-1,-1,-1,-1,-1,-1,-1,-1],"loss_changes":[6.638906E2,1.1134844E3,4.545078E2,1.1736133E2,4.3525E2,7.278998E1,2.8829688E2,5.6831055E1,0E0,5.0371094E0,0E0,8.69787E1,1.7413086E1,1.4606016E3,5.222217E2,3.3584106E1,9.308789E1,0E0,0E0,6.8621407E0,0E0,5.348177E-1,1.0759277E0,3.5134375E2,0E0,2.7036816E2,4.6790625E2,6.878693E1,3.45589E1,0E0,7.736621E1,2.3718352E0,0E0,0E0,0E0,0E0,0E0,2.7228906E2,0E0,4.1195508E2,2.1534863E2,3.783003E2,2.4788794E2,0E0,0E0,0E0,0E0,0E0,0E0,0E0,0E0,0E0,0E0,0E0,0E0,0E0,0E0,0E0,0E0,0E0,0E0],"parents":[2147483647,0,0,1,1,2,2,3,3,4,4,5,5,6,6,7,7,9,9,11,11,12,12,13,13,14,14,15,15,16,16,19,19,21,21,22,22,23,23,25,25,26,26,27,27,28,28,30,30,31,31,37,37,39,39,40,40,41,41,42,42],"right_children":[2,4,6,8,10,12,14,16,-1,18,-1,20,22,24,26,28,30,-1,-1,32,-1,34,36,38,-1,40,42,44,46,-1,48,50,-1,-1,-1,-1,-1,52,-1,54,56,58,60,-1,-1,-1,-1,-1,-1,-1,-1,-1,-1,-1,-1,-1,-1,-1,-1,-1,-1],"split_conditions":[1.095E2,1.165E2,1.165E2,1.115E2,1.525E2,1.155E2,4.915E2,8.25E1,2.162707E0,1.465E2,4.499886E0,1.115E2,1.115E2,5.81E2,6.265E2,7.85E1,8.2E1,2.509627E0,3.0573742E0,1.065E2,1.8302402E0,1.105E2,1.19E2,4.965E2,8.555704E0,5.805E2,6.475E2,4.3E1,7.9E1,2.9396062E0,1.005E2,1.045E2,7.784748E-1,1.7373414E-1,4.1373417E-1,8.813147E-1,2.185627E-1,3.74E2,2.979317E0,4.97E2,5.725E2,6.545E2,6.815E2,5.137958E-1,2.2427902E0,5.3270876E-2,1.0968988E0,1.3657954E0,1.8581219E0,3.1628382E-1,-1.5502626E-1,1.8592452E0,1.4303659E0,6.6230476E-1,1.9689908E0,2.3111176E-1,1.1960753E0,2.0009356E0,3.2834978E0,8.373222E-1,1.7622634E0],"split_indices":[0,1,1,1,1,0,0,1,0,1,0,1,1,1,1,0,0,0,0,1,0,1,0,1,0,0,0,0,1,0,1,1,0,0,0,0,0,0,0,1,1,1,1,0,0,0,0,0,0,0,0,0,0,0,0,0,0,0,0,0,0],"split_type":[0,0,0,0,0,0,0,0,0,0,0,0,0,0,0,0,0,0,0,0,0,0,0,0,0,0,0,0,0,0,0,0,0,0,0,0,0,0,0,0,0,0,0,0,0,0,0,0,0,0,0,0,0,0,0,0,0,0,0,0,0],"sum_hessian":[4.028E3,6.35E2,3.393E3,4.73E2,1.62E2,7.6E1,3.317E3,3.35E2,1.38E2,1.48E2,1.4E1,2.9E1,4.7E1,2.761E3,5.56E2,2.4E1,3.11E2,1.18E2,3E1,1.1E1,1.8E1,8E0,3.9E1,2.759E3,2E0,2.9E2,2.66E2,1E1,1.4E1,8E0,3.03E2,2E0,9E0,4E0,4E0,3.8E1,1E0,2.733E3,2.6E1,1.23E2,1.67E2,1.26E2,1.4E2,4E0,6E0,4E0,1E1,4.9E1,2.54E2,1E0,1E0,2.573E3,1.6E2,3E1,9.3E1,2.5E1,1.42E2,9.5E1,3.1E1,3.9E1,1.01E2],"tree_param":{"num_deleted":"0","num_feature":"2","num_nodes":"61","size_leaf_vector":"0"}},{"base_weights":[4.3316007E0,5.021514E0,4.189023E0,4.53819E0,7.2593446E0,3.4144547E0,4.325873E0,4.1152306E0,5.1846843E0,6.740331E0,1.1368772E1,3.9246964E0,1.888904E0,7.1810465E0,4.195026E0,4.1908584E0,1.6547247E0,2.9028723E0,4.9152727E0,-1.1295174E-1,2.6650305E0,6.646182E0,1.2022742E1,2.4895713E0,4.325904E0,4.777283E0,3.9257386E0,7.463086E-1,2.1969779E0,1.9822451E0,3.3054473E0,6.8018336E0,3.7423756E0,-1.3623929E0,2.7870074E-1,2.8584807E0,-6.1641186E-1,8.55955E0,6.142667E0,4.33824E0,1.3571236E0,5.6405935E0,4.081303E0,3.020191E0,5.4186497E0,8.6324173E-1,4.0568476E0,3.0459848E-1,8.910141E-1,8.2680595E-1,2.144105E0,4.414402E0,3.038675E0,5.611127E0,8.578526E0,1.8539139E0,6.440883E0,-1.4504805E0,-3.2884598E-1,-1.03391476E-1,4.8524356E-1,2.2382753E0,3.3518882E0,-3.1175536E-1,-1.0698471E0,5.3577085E0,6.6840496E0,2.2279134E0,5.6487193E0,-1.1015684E-2,2.146576E0,4.8838305E0,8.682842E0,1.8692434E0,4.215939E0],"categories":[],"categories_nodes":[],"categories_segments":[],"categories_sizes":[],"default_left":[1,1,1,1,1,1,1,1,0,0,0,1,1,1,1,1,1,1,1,1,1,1,0,1,1,1,1,1,0,1,1,1,1,1,1,1,1,0,1,1,1,1,1,0,0,0,0,0,0,0,0,0,0,0,0,0,0,0,0,0,0,0,0,0,0,0,0,0,0,0,0,0,0,0,0],"id":9,"left_children":[1,3,5,7,9,11,13,15,-1,-1,-1,17,19,21,23,25,27,29,31,33,35,37,-1,39,41,43,45,47,-1,49,51,53,55,57,59,61,63,-1,65,67,69,71,73,-1,-1,-1,-1,-1,-1,-1,-1,-1,-1,-1,-1,-1,-1,-1,-1,-1,-1,-1,-1,-1,-1,-1,-1,-1,-1,-1,-1,-1,-1,-1,-1],"loss_changes":[3.7528125E2,7.079512E2,3.3979688E2,1.3343066E2,1.793125E2,3.8723486E2,1.0305039E3,5.7635742E1,0E0,0E0,0E0,3.6935352E2,2.0072745E2,2.386211E2,5.956797E2,3.3484375E1,4.271473E0,6.3495483E1,3.971787E2,1.8485527E1,6.0798035E1,5.628711E1,0E0,4.0444263E2,7.879883E2,9.632861E1,9.16582E1,1.1210585E-1,0E0,9.448364E0,2.5045044E1,1.0418213E2,5.995825E2,3.423996E-1,2.3388033E0,1.9426758E1,4.953215E-1,0E0,3.7104492E0,1.9206506E2,1.3287358E2,8.623828E2,6.264844E2,0E0,0E0,0E0,0E0,0E0,0E0,0E0,0E0,0E0,0E0,0E0,0E0,0E0,0E0,0E0,0E0,0E0,0E0,0E0,0E0,0E0,0E0,0E0,0E0,0E0,0E0,0E0,0E0,0E0,0E0,0E0,0E0],"parents":[2147483647,0,0,1,1,2,2,3,3,4,4,5,5,6,6,7,7,11,11,12,12,13,13,14,14,15,15,16,16,17,17,18,18,19,19,20,20,21,21,23,23,24,24,25,25,26,26,27,27,29,29,30,30,31,31,32,32,33,33,34,34,35,35,36,36,38,38,39,39,40,40,41,41,42,42],"right_children":[2,4,6,8,10,12,14,16,-1,-1,-1,18,20,22,24,26,28,30,32,34,36,38,-1,40,42,44,46,48,-1,50,52,54,56,58,60,62,64,-1,66,68,70,72,74,-1,-1,-1,-1,-1,-1,-1,-1,-1,-1,-1,-1,-1,-1,-1,-1,-1,-1,-1,-1,-1,-1,-1,-1,-1,-1,-1,-1,-1,-1,-1,-1],"split_conditions":[1.155E2,1.195E2,1.715E2,1.115E2,1.55E2,1.63E2,1.685E2,1.095E2,1.5554054E0,2.0220995E0,3.4106317E0,1.225E2,1.645E2,1.875E2,1.975E2,9.6E1,1.085E2,1.175E2,1.265E2,1.555E2,1.725E2,1.56E2,3.6068227E0,1.835E2,2.115E2,8.55E1,9.85E1,1.065E2,6.590934E-1,1.115E2,1.17E2,1.255E2,1.555E2,1.545E2,1.615E2,1.675E2,1.765E2,2.5678651E0,1.775E2,1.785E2,1.885E2,2.385E2,2.215E2,9.060573E-1,1.625595E0,2.5897253E-1,1.2170544E0,9.1379546E-2,2.6730424E-1,2.480418E-1,6.432315E-1,1.3243207E0,9.1160256E-1,1.6833382E0,2.5735579E0,5.561742E-1,1.932265E0,-4.3514416E-1,-9.86538E-2,-3.1017443E-2,1.4557308E-1,6.714826E-1,1.0055665E0,-9.352661E-2,-3.2095414E-1,1.6073126E0,2.005215E0,6.6837406E-1,1.6946158E0,-3.3047055E-3,6.439728E-1,1.4651492E0,2.6048527E0,5.60773E-1,1.2647817E0],"split_indices":[0,1,1,1,1,0,0,0,0,0,0,1,1,1,1,0,1,1,0,1,0,0,0,0,0,1,1,1,0,1,0,1,1,1,1,1,0,0,1,1,1,1,1,0,0,0,0,0,0,0,0,0,0,0,0,0,0,0,0,0,0,0,0,0,0,0,0,0,0,0,0,0,0,0,0],"split_type":[0,0,0,0,0,0,0,0,0,0,0,0,0,0,0,0,0,0,0,0,0,0,0,0,0,0,0,0,0,0,0,0,0,0,0,0,0,0,0,0,0,0,0,0,0,0,0,0,0,0,0,0,0,0,0,0,0,0,0,0,0,0,0,0,0,0,0,0,0,0,0,0,0,0,0],"sum_hessian":[4.028E3,6.84E2,3.344E3,5.65E2,1.19E2,5.06E2,2.838E3,3.46E2,2.19E2,1.08E2,1.1E1,3.78E2,1.28E2,1.22E2,2.716E3,3.35E2,1.1E1,1.88E2,1.9E2,3.6E1,9.2E1,1.12E2,1E1,1.95E2,2.521E3,9.9E1,2.36E2,5E0,6E0,5.9E1,1.29E2,7.1E1,1.19E2,8E0,2.8E1,8.7E1,5E0,2E1,9.2E1,7.3E1,1.22E2,3.92E2,2.129E3,2.8E1,7.1E1,1E1,2.26E2,2E0,3E0,8E0,5.1E1,2.2E1,1.07E2,4.5E1,2.6E1,7.1E1,4.8E1,7E0,1E0,1E1,1.8E1,4.1E1,4.6E1,4E0,1E0,4.2E1,5E1,2.9E1,4.4E1,4.5E1,7.7E1,3.16E2,7.6E1,1.23E2,2.006E3],"tree_param":{"num_deleted":"0","num_feature":"2","num_nodes":"75","size_leaf_vector":"0"}},{"base_weights":[3.0424013E0,3.2478857E0,2.7218451E0,3.0887902E0,8.535201E0,-1.6036024E0,2.8094451E0,3.0204947E0,4.6157236E0,6.3517785E0,1.0481535E1,-7.4584323E-1,-3.7127821E0,2.7356324E0,4.4525585E0,3.1379893E0,1.3658127E0,6.25831E0,3.551692E0,9.22174E0,4.5325584E0,1.52535515E1,9.219805E0,-1.6168118E0,1.1550023E-1,2.797875E0,-1.7799687E-1,8.206524E0,3.4477637E0,3.0001376E0,4.5452747E0,4.971556E-1,2.7413485E0,6.782212E0,1.108116E1,-2.1971016E0,-8.8844734E-1,-3.8677562E-2,6.423187E-1,1.7531714E0,2.913145E0,3.267342E-1,-2.4196205E0,2.851361E0,6.046692E0,3.2282116E0,2.1684783E0,5.488788E0,4.182579E0,1.4305825E0,-6.1728424E-1,3.847821E0,1.6875176E0,2.7889E0,3.663844E-1,4.103434E0,2.6647232E0,-7.211845E-1,9.8557955E-1,-2.6473236E0,-6.405525E-1,4.4256525E0,2.4405459E-1,1.0042023E1,8.420227E-1],"categories":[],"categories_nodes":[],"categories_segments":[],"categories_sizes":[],"default_left":[1,1,1,1,1,1,1,1,1,1,1,1,0,1,1,1,1,0,0,0,0,0,1,1,1,1,1,0,1,1,1,1,1,0,0,0,0,0,0,1,1,1,1,1,1,0,0,0,0,0,0,0,0,0,0,0,0,0,0,0,0,0,0,0,0],"id":10,"left_children":[1,3,5,7,9,11,13,15,17,19,21,23,-1,25,27,29,31,-1,-1,-1,-1,-1,33,35,37,39,41,-1,43,45,47,49,51,-1,-1,-1,-1,-1,-1,53,55,57,59,61,63,-1,-1,-1,-1,-1,-1,-1,-1,-1,-1,-1,-1,-1,-1,-1,-1,-1,-1,-1,-1],"loss_changes":[2.5654297E2,2.0345469E3,6.031826E2,2.3425E2,2.351499E2,5.512423E1,1.7568652E2,4.3917773E2,1.5254858E2,1.4616125E2,7.612134E1,1.8191616E1,0E0,2.698047E2,2.1688342E2,3.993828E2,1.8145206E2,0E0,0E0,0E0,0E0,0E0,6.549902E1,3.1199398E0,1.0807517E0,1.699873E2,3.6995922E1,0E0,6.490912E1,3.6135742E2,4.1377686E1,9.970664E1,6.2302795E1,0E0,0E0,0E0,0E0,0E0,0E0,2.1011945E2,3.75833E2,1.9352026E1,7.348442E-1,1.8362955E2,1.7869376E2,0E0,0E0,0E0,0E0,0E0,0E0,0E0,0E0,0E0,0E0,0E0,0E0,0E0,0E0,0E0,0E0,0E0,0E0,0E0,0E0],"parents":[2147483647,0,0,1,1,2,2,3,3,4,4,5,5,6,6,7,7,8,8,9,9,10,10,11,11,13,13,14,14,15,15,16,16,22,22,23,23,24,24,25,25,26,26,28,28,29,29,30,30,31,31,32,32,39,39,40,40,41,41,42,42,43,43,44,44],"right_children":[2,4,6,8,10,12,14,16,18,20,22,24,-1,26,28,30,32,-1,-1,-1,-1,-1,34,36,38,40,42,-1,44,46,48,50,52,-1,-1,-1,-1,-1,-1,54,56,58,60,62,64,-1,-1,-1,-1,-1,-1,-1,-1,-1,-1,-1,-1,-1,-1,-1,-1,-1,-1,-1,-1],"split_conditions":[2.59E2,2.725E2,2.635E2,2.625E2,2.945E2,2.625E2,7.095E2,2.175E2,2.505E2,2.525E2,2.39E2,2.595E2,-1.1138347E0,6.865E2,6.765E2,2.255E2,2.565E2,1.877493E0,1.0655077E0,2.766522E0,1.3597676E0,4.5760655E0,3.05E2,2.575E2,2.625E2,2.755E2,7.07E2,2.4619572E0,8.495E2,2.005E2,1.99E2,2.48E2,2.525E2,2.0346637E0,3.324348E0,-6.591305E-1,-2.665342E-1,-1.1603269E-2,1.9269563E-1,2.62E2,2.8E2,6.765E2,7.075E2,7.24E2,8.48E2,9.6846354E-1,6.505435E-1,1.6466365E0,1.2547737E0,4.2917478E-1,-1.8518528E-1,1.1543463E0,5.062553E-1,8.3667E-1,1.0991532E-1,1.2310302E0,7.9941696E-1,-2.1635535E-1,2.9567388E-1,-7.9419714E-1,-1.9216576E-1,1.3276958E0,7.321638E-2,3.0126069E0,2.5260684E-1],"split_indices":[0,1,1,1,1,0,1,0,0,0,0,1,0,0,0,1,1,0,0,0,0,0,1,1,1,1,0,0,1,0,0,0,0,0,0,0,0,0,0,0,0,1,1,0,0,0,0,0,0,0,0,0,0,0,0,0,0,0,0,0,0,0,0,0,0],"split_type":[0,0,0,0,0,0,0,0,0,0,0,0,0,0,0,0,0,0,0,0,0,0,0,0,0,0,0,0,0,0,0,0,0,0,0,0,0,0,0,0,0,0,0,0,0,0,0,0,0,0,0,0,0,0,0,0,0,0,0,0,0,0,0,0,0],"sum_hessian":[4.028E3,2.449E3,1.579E3,2.379E3,7E1,3.1E1,1.548E3,2.28E3,9.9E1,3.5E1,3.5E1,2.3E1,8E0,1.484E3,6.4E1,2.128E3,1.52E2,3.7E1,6.2E1,1.2E1,2.3E1,5E0,3E1,1.1E1,1.2E1,1.453E3,3.1E1,1.2E1,5.2E1,1.941E3,1.87E2,9.4E1,5.8E1,1.5E1,1.5E1,5E0,6E0,1E1,2E0,1.46E2,1.307E3,2.6E1,5E0,4.4E1,8E0,1.521E3,4.2E2,4.8E1,1.39E2,5.1E1,4.3E1,2.7E1,3.1E1,8.3E1,6.3E1,2.23E2,1.084E3,1E1,1.6E1,4E0,1E0,2.7E1,1.7E1,4E0,4E0],"tree_param":{"num_deleted":"0","num_feature":"2","num_nodes":"65","size_leaf_vector":"0"}},{"base_weights":[2.1373193E0,2.573331E0,2.050052E0,1.9848869E0,3.5430377E0,1.4548723E0,2.1540117E0,2.4393933E0,1.8342893E0,3.2668288E0,6.569909E0,1.9969852E0,5.7377374E-1,4.0205183E0,2.0586274E0,1.380798E0,3.0559936E0,2.2292939E-1,1.9359378E0,3.149435E0,4.296384E0,1.1736717E0,3.9142828E0,-1.226937E0,1.1137618E0,3.407378E0,6.3075914E0,1.021985E0,2.1928377E0,2.5745811E0,8.1986237E-1,6.691075E0,2.5559661E0,-9.644287E-1,5.800457E-1,1.98515E0,1.1062249E0,2.9406374E0,3.9016714E0,3.3198433E0,7.61672E0,7.596899E-1,1.6498119E0,3.5895212E0,8.912181E0,-5.5906975E-1,-2.5254004E0,3.6744845E0,4.0988982E-1,9.969051E0,3.1328032E0,8.039533E0,5.0640655E0,1.8050476E0,1.8618022E-1,3.4729984E0,2.0188267E0,-1.9799805E-1,3.9856205E0,-1.0460314E0,1.3762894E0,1.5526074E0,3.6133053E0,-1.3036906E0,-3.0369058E-1,4.877472E-2,7.530715E-1,1.743419E0,2.1731784E0,3.691949E-2,1.8805451E0,3.120591E0,2.0670686E0,1.081084E0,3.390654E-1,1.713001E0,9.397888E-2,6.4632583E0,2.9196656E0,-1.9797322E0,2.1170916E-1,-3.7503052E0,-1.5379174E0,1.2899148E0,4.1751575E0,-8.04338E-1,9.7446716E-1,2.4787347E0,3.4524586E0,4.9836093E-1,4.018109E0,-1.732931E0,5.9271425E-1,3.1087253E0,5.2669744E0,1.5815789E0,2.3215096E0],"categories":[],"categories_nodes":[],"categories_segments":[],"categories_sizes":[],"default_left":[1,1,1,1,1,1,1,1,1,1,0,1,1,1,1,1,1,1,1,1,1,1,1,1,1,1,1,1,1,1,1,0,1,1,1,1,1,1,0,0,0,1,1,1,0,1,1,1,1,0,1,0,0,1,1,1,1,0,0,0,0,0,0,0,0,0,0,0,0,0,0,0,0,0,0,0,0,0,0,0,0,0,0,0,0,0,0,0,0,0,0,0,0,0,0,0,0],"id":11,"left_children":[1,3,5,7,9,11,13,15,17,19,-1,21,23,25,27,29,31,33,35,37,39,41,43,45,47,49,51,53,55,57,59,-1,61,63,65,67,69,71,-1,-1,-1,73,75,77,-1,79,81,83,85,-1,87,-1,-1,89,91,93,95,-1,-1,-1,-1,-1,-1,-1,-1,-1,-1,-1,-1,-1,-1,-1,-1,-1,-1,-1,-1,-1,-1,-1,-1,-1,-1,-1,-1,-1,-1,-1,-1,-1,-1,-1,-1,-1,-1,-1,-1],"loss_changes":[1.4802539E2,3.7414014E2,2.0488965E2,2.4136597E1,1.8838525E2,2.3911462E2,5.0090625E2,6.1705994E1,5.1654175E1,1.4509033E1,0E0,4.863308E2,1.8903241E2,1.7202441E2,3.766045E2,2.400499E1,9.740918E1,9.039912E0,1.0012939E1,2.1824463E1,4.2804993E1,4.191449E1,1.1896008E2,3.7612175E1,2.6705457E2,1.6875427E2,1.9591309E1,2.0517307E2,5.2984375E2,4.7735764E1,3.0510185E1,0E0,5.4860687E1,7.248974E-1,1.4340458E0,8.983276E0,1.5662285E1,2.0273926E1,0E0,0E0,0E0,1.5720604E1,9.768524E0,1.5245361E2,0E0,3.4364643E1,1.2375938E1,3.281888E1,8.167581E1,0E0,1.4022583E1,0E0,0E0,4.664655E2,1.2039529E2,1.7118042E2,2.7743555E2,0E0,0E0,0E0,0E0,0E0,0E0,0E0,0E0,0E0,0E0,0E0,0E0,0E0,0E0,0E0,0E0,0E0,0E0,0E0,0E0,0E0,0E0,0E0,0E0,0E0,0E0,0E0,0E0,0E0,0E0,0E0,0E0,0E0,0E0,0E0,0E0,0E0,0E0,0E0,0E0],"parents":[2147483647,0,0,1,1,2,2,3,3,4,4,5,5,6,6,7,7,8,8,9,9,11,11,12,12,13,13,14,14,15,15,16,16,17,17,18,18,19,19,20,20,21,21,22,22,23,23,24,24,25,25,26,26,27,27,28,28,29,29,30,30,32,32,33,33,34,34,35,35,36,36,37,37,41,41,42,42,43,43,45,45,46,46,47,47,48,48,50,50,53,53,54,54,55,55,56,56],"right_children":[2,4,6,8,10,12,14,16,18,20,-1,22,24,26,28,30,32,34,36,38,40,42,44,46,48,50,52,54,56,58,60,-1,62,64,66,68,70,72,-1,-1,-1,74,76,78,-1,80,82,84,86,-1,88,-1,-1,90,92,94,96,-1,-1,-1,-1,-1,-1,-1,-1,-1,-1,-1,-1,-1,-1,-1,-1,-1,-1,-1,-1,-1,-1,-1,-1,-1,-1,-1,-1,-1,-1,-1,-1,-1,-1,-1,-1,-1,-1,-1,-1],"split_conditions":[1.115E2,1.145E2,1.705E2,9.6E1,1.515E2,1.385E2,1.685E2,9.15E1,1.005E2,1.03E2,1.9709728E0,1.235E2,1.545E2,1.835E2,2.075E2,7.95E1,9.1E1,9.55E1,1.095E2,1.405E2,1.24E2,1.195E2,1.475E2,1.515E2,1.55E2,1.47E2,1.595E2,1.895E2,2.13E2,4.3E1,8.05E1,2.0073225E0,1.035E2,9.45E1,9.75E1,1.075E2,1.095E2,1.225E2,1.1705015E0,9.95953E-1,2.285016E0,1.17E2,1.19E2,1.17E2,2.6736543E0,1.415E2,1.52E2,1.585E2,1.645E2,2.9907155E0,1.745E2,2.41186E0,1.5192198E0,1.885E2,1.935E2,2.535E2,2.885E2,-5.9399415E-2,1.1956862E0,-3.1380942E-1,4.1288683E-1,4.6578225E-1,1.0839916E0,-3.9110717E-1,-9.1107175E-2,1.4632416E-2,2.2592145E-1,5.2302575E-1,6.519536E-1,1.1075847E-2,5.6416357E-1,9.361773E-1,6.201206E-1,3.243252E-1,1.01719625E-1,5.1390034E-1,2.8193666E-2,1.9389776E0,8.7589973E-1,-5.939197E-1,6.351275E-2,-1.1250916E0,-4.6137524E-1,3.8697448E-1,1.2525473E0,-2.413014E-1,2.9234016E-1,7.4362046E-1,1.0357376E0,1.4950828E-1,1.2054327E0,-5.1987934E-1,1.7781428E-1,9.326176E-1,1.5800924E0,4.7447369E-1,6.964529E-1],"split_indices":[0,1,1,0,1,0,0,1,1,0,0,1,1,1,1,0,0,1,0,1,1,1,1,0,0,0,0,0,0,0,1,0,1,1,1,1,1,1,0,0,0,0,0,0,0,1,1,1,1,0,1,0,0,1,1,1,1,0,0,0,0,0,0,0,0,0,0,0,0,0,0,0,0,0,0,0,0,0,0,0,0,0,0,0,0,0,0,0,0,0,0,0,0,0,0,0,0],"split_type":[0,0,0,0,0,0,0,0,0,0,0,0,0,0,0,0,0,0,0,0,0,0,0,0,0,0,0,0,0,0,0,0,0,0,0,0,0,0,0,0,0,0,0,0,0,0,0,0,0,0,0,0,0,0,0,0,0,0,0,0,0,0,0,0,0,0,0,0,0,0,0,0,0,0,0,0,0,0,0,0,0,0,0,0,0,0,0,0,0,0,0,0,0,0,0,0,0],"sum_hessian":[4.028E3,6.67E2,3.361E3,4.17E2,2.5E2,5.02E2,2.859E3,1E2,3.17E2,2.31E2,1.9E1,3.1E2,1.92E2,1.37E2,2.722E3,3.8E1,6.2E1,1.9E1,2.98E2,2.11E2,2E1,2.18E2,9.2E1,4.4E1,1.48E2,1.1E2,2.7E1,3.13E2,2.409E3,1.1E1,2.7E1,6E0,5.6E1,4E0,1.5E1,2.8E2,1.8E1,1.69E2,4.2E1,1.7E1,3E0,1.18E2,1E2,8.8E1,4E0,3E1,1.4E1,3.1E1,1.17E2,3E0,1.07E2,9E0,1.8E1,1.61E2,1.52E2,2.86E2,2.123E3,4E0,7E0,6E0,2.1E1,3E1,2.6E1,2E0,2E0,4E0,1.1E1,1.27E2,1.53E2,8E0,1E1,1.38E2,3.1E1,6.6E1,5.2E1,9.6E1,4E0,1.5E1,7.3E1,1E1,2E1,5E0,9E0,6E0,2.5E1,3.7E1,8E1,3.8E1,6.9E1,1.02E2,5.9E1,2.6E1,1.26E2,2.4E2,4.6E1,8.71E2,1.252E3],"tree_param":{"num_deleted":"0","num_feature":"2","num_nodes":"97","size_leaf_vector":"0"}},{"base_weights":[1.5044912E0,1.6467421E0,1.1771542E0,1.539686E0,5.748984E0,-1.6566899E0,1.3375136E0,1.5071987E0,2.9165168E0,1.085979E1,5.197259E0,-9.6542305E-1,-6.547696E0,2.6109295E0,1.2095077E0,1.5565629E0,6.833226E-1,4.5144653E0,7.8936253E0,-2.0316172E0,6.3127086E-2,2.1974134E0,1.5938008E1,-6.4564586E-1,1.4327327E0,1.4990834E0,3.4651365E0,-1.1734247E0,1.0041002E0,-2.964057E0,-1.5352565E0,2.4024473E-1,-1.1924782E0,9.768146E-1,3.877858E0,3.103957E-1,-3.7377203E0,2.6253157E0,1.1704856E0,1.574473E0,8.01218E-1,5.115285E0,3.0566602E0,-2.1506E0,-7.020335E-1,5.9157044E-1,1.6396062E0,1.3188934E-1,-1.7176871E0,-2.6260567E-1,5.810659E-1,-1.4625067E0,-1.9119644E-1,1.6604831E0,-1.9532051E0,5.086833E0,2.6054084E0,-2.7846317E0,1.3842629E0,-3.9923043E0,-2.1812923E0,1.8078108E0,4.6484466E0,-1.146741E0,1.3083618E0],"categories":[],"categories_nodes":[],"categories_segments":[],"categories_sizes":[],"default_left":[1,1,1,1,1,1,1,1,0,0,1,1,0,1,1,1,1,0,0,1,1,1,0,1,1,1,1,1,1,0,1,1,1,1,1,1,1,1,1,0,0,0,0,0,0,0,0,0,0,0,0,0,0,0,0,0,0,0,0,0,0,0,0,0,0],"id":12,"left_children":[1,3,5,7,9,11,13,15,-1,-1,17,19,-1,21,23,25,27,-1,-1,29,31,33,-1,35,37,39,41,43,45,-1,47,49,51,53,55,57,59,61,63,-1,-1,-1,-1,-1,-1,-1,-1,-1,-1,-1,-1,-1,-1,-1,-1,-1,-1,-1,-1,-1,-1,-1,-1,-1,-1],"loss_changes":[1.8566797E2,1.2234609E3,5.584425E2,1.179834E2,1.4376147E2,2.1682405E2,1.8576465E2,1.07729004E2,0E0,0E0,8.587451E1,6.4829666E1,0E0,5.436288E2,4.378181E2,2.7158838E2,9.2305504E1,0E0,0E0,8.871368E0,7.1805716E0,2.0748029E2,0E0,3.3816144E2,2.9153906E2,1.2768994E2,3.3569702E1,9.084738E0,3.3373688E1,0E0,6.613453E0,4.951289E0,8.018718E-1,1.2543614E2,5.289618E1,2.9633572E2,1.9901428E0,2.7110876E2,2.4878577E2,0E0,0E0,0E0,0E0,0E0,0E0,0E0,0E0,0E0,0E0,0E0,0E0,0E0,0E0,0E0,0E0,0E0,0E0,0E0,0E0,0E0,0E0,0E0,0E0,0E0,0E0],"parents":[2147483647,0,0,1,1,2,2,3,3,4,4,5,5,6,6,7,7,10,10,11,11,13,13,14,14,15,15,16,16,19,19,20,20,21,21,23,23,24,24,25,25,26,26,27,27,28,28,30,30,31,31,32,32,33,33,34,34,35,35,36,36,37,37,38,38],"right_children":[2,4,6,8,10,12,14,16,-1,-1,18,20,-1,22,24,26,28,-1,-1,30,32,34,-1,36,38,40,42,44,46,-1,48,50,52,54,56,58,60,62,64,-1,-1,-1,-1,-1,-1,-1,-1,-1,-1,-1,-1,-1,-1,-1,-1,-1,-1,-1,-1,-1,-1,-1,-1,-1,-1],"split_conditions":[2.705E2,2.905E2,2.885E2,2.845E2,2.39E2,3.035E2,3.1E2,2.62E2,8.7495506E-1,3.2579372E0,3.12E2,2.825E2,-1.9643089E0,3.34E2,3.565E2,2.705E2,2.715E2,1.3543396E0,2.3680878E0,2.72E2,2.835E2,3.015E2,4.7814026E0,3.545E2,3.625E2,2.495E2,2.525E2,2.66E2,2.795E2,-8.8921714E-1,2.775E2,2.855E2,2.87E2,2.865E2,2.945E2,3.285E2,3.555E2,3.775E2,3.805E2,4.7234192E-1,2.403654E-1,1.5345856E0,9.169981E-1,-6.4518E-1,-2.1061006E-1,1.7747113E-1,4.9188188E-1,3.9566804E-2,-5.153062E-1,-7.87817E-2,1.7431977E-1,-4.3875203E-1,-5.7358935E-2,4.9814495E-1,-5.859616E-1,1.52605E0,7.816226E-1,-8.3538955E-1,4.1527888E-1,-1.1976913E0,-6.543877E-1,5.4234326E-1,1.394534E0,-3.4402233E-1,3.9250854E-1],"split_indices":[0,1,1,1,0,0,0,0,0,0,1,1,0,1,1,1,1,0,0,1,0,1,0,0,0,0,0,1,1,0,0,1,1,0,0,1,1,1,1,0,0,0,0,0,0,0,0,0,0,0,0,0,0,0,0,0,0,0,0,0,0,0,0,0,0],"split_type":[0,0,0,0,0,0,0,0,0,0,0,0,0,0,0,0,0,0,0,0,0,0,0,0,0,0,0,0,0,0,0,0,0,0,0,0,0,0,0,0,0,0,0,0,0,0,0,0,0,0,0,0,0,0,0,0,0,0,0,0,0,0,0,0,0],"sum_hessian":[4.028E3,2.805E3,1.223E3,2.735E3,7E1,6.5E1,1.158E3,2.674E3,6.1E1,5E0,6.5E1,5.8E1,7E0,1.04E2,1.054E3,2.522E3,1.52E2,5.4E1,1.1E1,2.8E1,3E1,1.02E2,2E0,1.13E2,9.41E2,2.45E3,7.2E1,2.2E1,1.3E2,8E0,2E1,2.7E1,3E0,6E1,4.2E1,8.7E1,2.6E1,1.68E2,7.73E2,2.21E3,2.4E2,1.2E1,6E1,6E0,1.6E1,8E1,5E1,2E0,1.8E1,1.1E1,1.6E1,2E0,1E0,4.9E1,1.1E1,2E1,2.2E1,2.2E1,6.5E1,2.1E1,5E0,1.21E2,4.7E1,4.3E1,7.3E2],"tree_param":{"num_deleted":"0","num_feature":"2","num_nodes":"65","size_leaf_vector":"0"}},{"base_weights":[1.0565728E0,1.1268092E0,5.664356E-1,1.1098012E0,2.071311E1,-6.929076E-1,1.1333207E0,1.0789402E0,4.2431297E0,-2.914041E-1,-3.0368884E0,4.666353E0,9.501025E-1,1.1222734E0,1.3351654E-1,3.5629919E0,6.3575187E0,-1.1061044E0,1.4371988E0,-3.1780934E0,-1.0361582E0,-9.348531E-1,1.2852526E0,1.1058699E0,1.4505795E1,-1.8097619E0,6.991934E-1,4.4418254E0,2.827983E0,-2.2439492E-1,-2.3211792E0,3.6506064E0,9.916448E-1,-2.5621268E-1,-2.8988624E0,2.0345635E0,4.8896015E-1,1.0490412E0,2.6448414E0,1.6377893E1,4.444748E0,-7.9911345E-1,-2.9599624E0,1.7787976E0,-4.1005734E-1,1.4072326E0,3.133395E0,-2.9802237E0,7.8930813E-1,-3.1720524E0,-1.440809E0,-3.0350444E-1,1.7597946E0,-9.193864E-1,1.9657867E-1,-1.7003618E0,-3.43538E0,8.431957E-1,3.46587E0,-6.5000814E-1,1.1771942E0],"categories":[],"categories_nodes":[],"categories_segments":[],"categories_sizes":[],"default_left":[1,1,1,1,0,1,1,1,1,1,1,0,1,1,1,1,0,1,1,0,0,1,1,1,1,1,1,0,1,1,1,0,1,1,1,1,1,0,0,0,0,0,0,0,0,0,0,0,0,0,0,0,0,0,0,0,0,0,0,0,0],"id":13,"left_children":[1,3,5,7,-1,9,11,13,15,17,19,-1,21,23,25,27,-1,29,31,-1,-1,33,35,37,39,41,43,-1,45,47,49,-1,51,53,55,57,59,-1,-1,-1,-1,-1,-1,-1,-1,-1,-1,-1,-1,-1,-1,-1,-1,-1,-1,-1,-1,-1,-1,-1,-1],"loss_changes":[1.3806201E2,1.1506182E3,3.62734E2,3.3589355E2,0E0,1.4781143E2,2.2212704E2,1.4274756E2,2.6242737E1,1.9311757E2,3.2047882E0,0E0,2.1220367E2,7.161113E2,1.7055261E2,5.5252075E0,0E0,9.911404E1,3.9772377E1,0E0,0E0,6.723294E1,1.6845966E2,2.8863525E2,2.5455322E0,3.832035E1,1.4443561E2,0E0,3.4010468E0,1.5599988E2,2.4643936E1,0E0,3.8339104E1,1.1891624E1,2.5178223E0,2.4603864E2,1.0972406E2,0E0,0E0,0E0,0E0,0E0,0E0,0E0,0E0,0E0,0E0,0E0,0E0,0E0,0E0,0E0,0E0,0E0,0E0,0E0,0E0,0E0,0E0,0E0,0E0],"parents":[2147483647,0,0,1,1,2,2,3,3,5,5,6,6,7,7,8,8,9,9,10,10,12,12,13,13,14,14,15,15,17,17,18,18,21,21,22,22,23,23,24,24,25,25,26,26,28,28,29,29,30,30,32,32,33,33,34,34,35,35,36,36],"right_children":[2,4,6,8,-1,10,12,14,16,18,20,-1,22,24,26,28,-1,30,32,-1,-1,34,36,38,40,42,44,-1,46,48,50,-1,52,54,56,58,60,-1,-1,-1,-1,-1,-1,-1,-1,-1,-1,-1,-1,-1,-1,-1,-1,-1,-1,-1,-1,-1,-1,-1,-1],"split_conditions":[4.955E2,5.825E2,6.085E2,5.065E2,6.2139335E0,6.085E2,6.05E2,3.885E2,5.27E2,5.79E2,6.07E2,1.399906E0,6.245E2,4.335E2,4.15E2,4.915E2,1.9072556E0,5.665E2,5.78E2,-9.534281E-1,-3.1084746E-1,6.325E2,6.495E2,3.745E2,3.785E2,3.945E2,4.78E2,1.3325477E0,5.125E2,5.095E2,5.665E2,1.095182E0,5.895E2,6.175E2,6.375E2,6.385E2,6.935E2,3.1471235E-1,7.9345244E-1,4.913368E0,1.3334244E0,-2.3973404E-1,-8.8798875E-1,5.336393E-1,-1.2301721E-1,4.221698E-1,9.4001853E-1,-8.940671E-1,2.3679245E-1,-9.5161575E-1,-4.3224272E-1,-9.105133E-2,5.279384E-1,-2.7581593E-1,5.8973603E-2,-5.101086E-1,-1.030614E0,2.5295871E-1,1.0397611E0,-1.9500245E-1,3.531583E-1],"split_indices":[0,1,1,1,0,0,0,0,1,1,1,0,1,1,1,0,0,0,0,0,0,0,0,1,0,0,0,0,1,1,1,0,1,1,0,1,1,0,0,0,0,0,0,0,0,0,0,0,0,0,0,0,0,0,0,0,0,0,0,0,0],"split_type":[0,0,0,0,0,0,0,0,0,0,0,0,0,0,0,0,0,0,0,0,0,0,0,0,0,0,0,0,0,0,0,0,0,0,0,0,0,0,0,0,0,0,0,0,0,0,0,0,0,0,0,0,0,0,0,0,0,0,0,0,0],"sum_hessian":[4.028E3,3.522E3,5.06E2,3.52E3,2E0,1.57E2,3.49E2,3.487E3,3.3E1,1.35E2,2.2E1,1.6E1,3.33E2,3.334E3,1.53E2,2.7E1,6E0,9.2E1,4.3E1,2E1,2E0,5E1,2.83E2,3.331E3,3E0,3.4E1,1.19E2,1E1,1.7E1,5.4E1,3.8E1,6E0,3.7E1,3.8E1,1.2E1,1.45E2,1.38E2,3.214E3,1.17E2,2E0,1E0,1.9E1,1.5E1,6E1,5.9E1,4E0,1.3E1,1.4E1,4E1,1.8E1,2E1,1.4E1,2.3E1,1.5E1,2.3E1,5E0,7E0,8E1,6.5E1,5.2E1,8.6E1],"tree_param":{"num_deleted":"0","num_feature":"2","num_nodes":"61","size_leaf_vector":"0"}},{"base_weights":[7.4376404E-1,8.419791E-1,5.18E-1,7.6459E-1,3.8123238E0,-1.2268368E0,6.625594E-1,6.9317776E-1,1.143851E0,7.8825836E0,3.3845377E0,-6.324316E-1,-4.3152084E0,2.1800802E0,5.4962844E-1,7.5180995E-1,-1.0131129E0,3.0601494E0,8.90695E-1,2.818365E0,5.286153E0,-1.8672867E0,-1.0139733E-1,-2.53811E0,-5.2179284E0,1.8496004E0,1.3813507E1,-1.3010693E0,6.626495E-1,6.751813E-1,1.3029675E0,-3.245306E0,-5.9190947E-1,6.19996E0,2.6523407E0,7.893112E-1,2.0573342E0,2.4319315E0,3.3343837E0,-2.5226908E0,-1.4490209E0,1.3054642E-2,-9.2077637E-1,1.4582964E0,4.325508E0,-7.2819716E-1,-3.579614E0,2.7086341E0,5.6729096E-1,7.805313E-1,-2.657369E-1,1.7180395E0,1.5362099E-1,-2.0517696E-2,-1.6592716E0,2.3958883E0,4.276071E0,1.1824356E0,3.6168426E-1,5.655365E-1,2.0892742E0,1.6031723E0,2.6661577E0,-2.4526596E-1,-1.5089264E0,-2.4508506E-1,7.127871E-1,1.8519282E0,-1.3279487E0,-2.2615993E0,2.845848E-1,1.697283E0,4.2150574E0,-1.0284249E0,7.560101E-1],"categories":[],"categories_nodes":[],"categories_segments":[],"categories_sizes":[],"default_left":[1,1,1,1,1,1,1,1,1,0,1,1,1,1,1,1,1,1,1,1,0,1,1,0,0,1,0,1,1,1,1,0,1,0,1,1,1,1,0,0,1,1,0,1,0,1,0,1,1,0,0,0,0,0,0,0,0,0,0,0,0,0,0,0,0,0,0,0,0,0,0,0,0,0,0],"id":14,"left_children":[1,3,5,7,9,11,13,15,17,-1,19,21,23,25,27,29,31,33,35,37,-1,39,41,-1,-1,43,-1,45,47,49,51,-1,53,-1,55,57,59,61,-1,-1,63,65,-1,67,-1,69,-1,71,73,-1,-1,-1,-1,-1,-1,-1,-1,-1,-1,-1,-1,-1,-1,-1,-1,-1,-1,-1,-1,-1,-1,-1,-1,-1,-1],"loss_changes":[8.8900635E1,6.4210645E2,3.0954544E2,7.330859E1,9.694641E1,1.6983089E2,1.9262689E2,2.3136206E2,2.0684729E2,0E0,5.6160156E1,5.227069E1,1.0819672E1,2.7433017E2,2.2132504E2,9.3260864E1,7.047506E1,4.757776E1,4.3676727E1,2.4595642E0,0E0,2.923767E0,5.357455E0,0E0,0E0,6.829227E1,0E0,7.701753E1,1.9239487E2,1.9439465E2,1.290198E2,0E0,4.0218163E1,0E0,8.909821E0,5.908348E1,2.4787903E-1,2.3256836E0,0E0,0E0,8.5580826E-1,9.386759E0,0E0,7.7038605E1,0E0,7.829372E1,0E0,5.988086E1,2.871637E2,0E0,0E0,0E0,0E0,0E0,0E0,0E0,0E0,0E0,0E0,0E0,0E0,0E0,0E0,0E0,0E0,0E0,0E0,0E0,0E0,0E0,0E0,0E0,0E0,0E0,0E0],"parents":[2147483647,0,0,1,1,2,2,3,3,4,4,5,5,6,6,7,7,8,8,10,10,11,11,12,12,13,13,14,14,15,15,16,16,17,17,18,18,19,19,21,21,22,22,25,25,27,27,28,28,29,29,30,30,32,32,34,34,35,35,36,36,37,37,40,40,41,41,43,43,45,45,47,47,48,48],"right_children":[2,4,6,8,10,12,14,16,18,-1,20,22,24,26,28,30,32,34,36,38,-1,40,42,-1,-1,44,-1,46,48,50,52,-1,54,-1,56,58,60,62,-1,-1,64,66,-1,68,-1,70,-1,72,74,-1,-1,-1,-1,-1,-1,-1,-1,-1,-1,-1,-1,-1,-1,-1,-1,-1,-1,-1,-1,-1,-1,-1,-1,-1,-1],"split_conditions":[2.705E2,2.905E2,2.925E2,2.625E2,2.39E2,2.9E2,3.1E2,2.505E2,2.505E2,2.3647752E0,3.09E2,2.815E2,3.065E2,3.085E2,3.465E2,2.255E2,2.525E2,2.06E2,2.875E2,2.965E2,1.585846E0,2.69E2,2.835E2,-7.6143306E-1,-1.5653785E0,3.155E2,4.1440525E0,3.34E2,3.445E2,2.035E2,2.29E2,-9.7359186E-1,2.59E2,1.8599881E0,2.77E2,2.665E2,2.64E2,2.64E2,1.0003152E0,-7.5680727E-1,2.775E2,2.895E2,-2.7623293E-1,2.975E2,1.2976525E0,3.275E2,-1.0738842E0,3.55E2,3.705E2,2.341594E-1,-7.972108E-2,5.1541185E-1,4.6086296E-2,-6.155309E-3,-4.977815E-1,7.187665E-1,1.2828214E0,3.547307E-1,1.0850529E-1,1.6966096E-1,6.267823E-1,4.809517E-1,7.9984736E-1,-7.357979E-2,-4.5267794E-1,-7.352552E-2,2.1383613E-1,5.555785E-1,-3.9838463E-1,-6.784798E-1,8.537544E-2,5.0918496E-1,1.2645173E0,-3.0852747E-1,2.2680305E-1],"split_indices":[0,1,1,1,0,0,0,0,0,0,1,1,0,0,1,1,1,0,1,1,0,1,0,0,0,1,0,0,0,0,0,0,0,0,1,0,0,0,0,0,0,1,0,0,0,1,0,1,1,0,0,0,0,0,0,0,0,0,0,0,0,0,0,0,0,0,0,0,0,0,0,0,0,0,0],"split_type":[0,0,0,0,0,0,0,0,0,0,0,0,0,0,0,0,0,0,0,0,0,0,0,0,0,0,0,0,0,0,0,0,0,0,0,0,0,0,0,0,0,0,0,0,0,0,0,0,0,0,0,0,0,0,0,0,0,0,0,0,0,0,0,0,0,0,0,0,0,0,0,0,0,0,0],"sum_hessian":[4.028E3,2.805E3,1.223E3,2.735E3,7E1,9.3E1,1.13E3,2.304E3,4.31E2,5E0,6.5E1,7.9E1,1.4E1,7.7E1,1.053E3,2.228E3,7.6E1,4.9E1,3.82E2,5.2E1,1.3E1,2.3E1,5.6E1,6E0,8E0,7.6E1,1E0,6E1,9.93E2,1.958E3,2.7E2,1.1E1,6.5E1,4E0,4.5E1,3.53E2,2.9E1,3.3E1,1.9E1,7E0,1.6E1,5E1,6E0,6.7E1,9E0,4.9E1,1.1E1,4.3E1,9.5E2,1.761E3,1.97E2,1.98E2,7.2E1,4.3E1,2.2E1,4.1E1,4E0,1.83E2,1.7E2,1E0,2.8E1,9E0,2.4E1,1E0,1.5E1,3.7E1,1.3E1,5.9E1,8E0,1.9E1,3E1,2.7E1,1.6E1,1E2,8.5E2],"tree_param":{"num_deleted":"0","num_feature":"2","num_nodes":"75","size_leaf_vector":"0"}},{"base_weights":[5.23728E-1,5.748683E-1,1.6245486E-1,5.6122833E-1,1.6419281E1,-4.091279E-1,8.43152E-1,5.3672403E-1,2.796989E0,-1.7173639E-1,-2.400569E0,1.9047799E0,1.5465437E-1,5.704148E-1,-1.08614646E-1,2.1756463E0,4.1243167E0,-1.139175E0,3.5869694E-1,-2.8734422E0,-1.6886733E0,1.3581698E0,3.438028E0,-4.8154425E-2,3.1119995E0,5.2861404E-1,3.981725E0,-2.2276905E0,1.6551523E-1,3.3373032E0,1.6295083E0,-4.9956284E0,-9.4197285E-1,1.651604E0,-3.4093285E-1,-1.1818069E0,-2.3646712E0,1.6180389E0,3.3209637E-1,2.8274698E0,4.6966987E0,3.4374785E-1,-1.920376E0,6.2968016E0,-6.9520265E-1,5.6419885E-1,-5.8493185E-1,3.2719185E0,1.1645363E1,-2.7232385E0,-1.5746751E0,1.5278054E0,-1.4686218E-1,1.1404922E0,1.9012293E0,3.0177189E-2,-1.7457093E0,8.711301E-1,3.1256256E0,-1.6886992E0,1.0695146E-1,1.309001E0,2.4920044E0,-3.6648813E-1,7.180374E-1,-3.2457998E-1,1.5687698E0,-3.0209627E0,-4.4510305E-1,-1.2460022E0,8.733114E-2],"categories":[],"categories_nodes":[],"categories_segments":[],"categories_sizes":[],"default_left":[1,1,1,1,0,1,1,1,1,1,1,1,1,1,1,1,0,1,1,0,1,1,1,1,1,1,1,1,1,0,1,0,1,1,1,0,0,1,1,0,0,1,1,0,1,0,0,0,0,0,0,0,0,0,0,0,0,0,0,0,0,0,0,0,0,0,0,0,0,0,0],"id":15,"left_children":[1,3,5,7,-1,9,11,13,15,17,19,21,23,25,27,29,-1,31,33,-1,35,37,39,41,43,45,47,49,51,-1,53,-1,55,57,59,-1,-1,61,63,-1,-1,65,67,-1,69,-1,-1,-1,-1,-1,-1,-1,-1,-1,-1,-1,-1,-1,-1,-1,-1,-1,-1,-1,-1,-1,-1,-1,-1,-1,-1],"loss_changes":[7.434485E1,7.534619E2,1.952714E2,1.9172852E2,0E0,1.286488E2,1.6708798E2,7.594141E1,2.2366516E1,1.2613325E2,4.9101562E0,7.0758606E1,8.411844E1,4.7088367E2,1.0144566E2,1.2325745E1,0E0,6.1457855E1,1.4438754E2,0E0,2.0023842E0,1.7594513E1,4.3955383E0,9.751221E1,1.13504234E2,1.3022192E2,1.7948523E2,2.183792E0,6.6184425E1,0E0,6.2205505E-1,0E0,6.5686295E1,6.1701553E1,6.2959526E1,0E0,0E0,1.1322739E1,4.307339E0,0E0,0E0,9.056798E1,3.5999664E1,0E0,2.2639112E0,0E0,0E0,0E0,0E0,0E0,0E0,0E0,0E0,0E0,0E0,0E0,0E0,0E0,0E0,0E0,0E0,0E0,0E0,0E0,0E0,0E0,0E0,0E0,0E0,0E0,0E0],"parents":[2147483647,0,0,1,1,2,2,3,3,5,5,6,6,7,7,8,8,9,9,10,10,11,11,12,12,13,13,14,14,15,15,17,17,18,18,20,20,21,21,22,22,23,23,24,24,25,25,26,26,27,27,28,28,30,30,32,32,33,33,34,34,37,37,38,38,41,41,42,42,44,44],"right_children":[2,4,6,8,-1,10,12,14,16,18,20,22,24,26,28,30,-1,32,34,-1,36,38,40,42,44,46,48,50,52,-1,54,-1,56,58,60,-1,-1,62,64,-1,-1,66,68,-1,70,-1,-1,-1,-1,-1,-1,-1,-1,-1,-1,-1,-1,-1,-1,-1,-1,-1,-1,-1,-1,-1,-1,-1,-1,-1,-1],"split_conditions":[5.015E2,5.825E2,6.325E2,5.065E2,4.9257846E0,6.21E2,6.475E2,3.87E2,5.23E2,5.79E2,6.215E2,6.63E2,8.495E2,3.875E2,3.94E2,4.815E2,1.237295E0,4.84E2,5.94E2,-8.620327E-1,6.44E2,6.235E2,7.21E2,7.15E2,8.48E2,3.59E2,4.355E2,3.815E2,4.125E2,1.001191E0,5.155E2,-1.4986886E0,5.47E2,6.015E2,6.135E2,-3.5454208E-1,-7.0940137E-1,6.445E2,6.485E2,8.48241E-1,1.4090097E0,7.03E2,7.705E2,1.8890406E0,1.045E3,1.6925967E-1,-1.7547956E-1,9.815756E-1,3.493609E0,-8.169716E-1,-4.7240254E-1,4.5834166E-1,-4.4058654E-2,3.4214768E-1,5.703688E-1,9.053157E-3,-5.237128E-1,2.6133904E-1,9.376877E-1,-5.066098E-1,3.208544E-2,3.927003E-1,7.4760133E-1,-1.09946445E-1,2.1541123E-1,-9.7374E-2,4.7063097E-1,-9.0628886E-1,-1.3353091E-1,-3.7380067E-1,2.6199343E-2],"split_indices":[0,1,1,1,0,0,0,0,1,1,1,1,1,1,1,0,0,1,0,0,0,0,1,0,0,0,1,1,0,0,1,0,0,1,1,0,0,1,1,0,0,1,1,0,0,0,0,0,0,0,0,0,0,0,0,0,0,0,0,0,0,0,0,0,0,0,0,0,0,0,0],"split_type":[0,0,0,0,0,0,0,0,0,0,0,0,0,0,0,0,0,0,0,0,0,0,0,0,0,0,0,0,0,0,0,0,0,0,0,0,0,0,0,0,0,0,0,0,0,0,0,0,0,0,0,0,0,0,0,0,0,0,0,0,0,0,0,0,0,0,0,0,0,0,0],"sum_hessian":[4.028E3,3.528E3,5E2,3.526E3,2E0,2.72E2,2.28E2,3.489E3,3.7E1,2.44E2,2.8E1,8.9E1,1.39E2,3.316E3,1.73E2,2.7E1,1E1,8.6E1,1.58E2,1.5E1,1.3E1,6.7E1,2.2E1,1.31E2,8E0,3.277E3,3.9E1,1.9E1,1.54E2,7E0,2E1,3E0,8.3E1,5.5E1,1.03E2,9E0,4E0,5.3E1,1.4E1,1.7E1,5E0,1.09E2,2.2E1,4E0,4E0,3.176E3,1.01E2,3.7E1,2E0,9E0,1E1,2.8E1,1.26E2,9E0,1.1E1,3.8E1,4.5E1,3.7E1,1.8E1,2.5E1,7.8E1,4.1E1,1.2E1,5E0,9E0,7.1E1,3.8E1,1.2E1,1E1,2E0,2E0],"tree_param":{"num_deleted":"0","num_feature":"2","num_nodes":"71","size_leaf_vector":"0"}},{"base_weights":[3.6979574E-1,6.3401437E-1,3.1718782E-1,3.0318105E-1,1.5862827E0,6.932013E-3,4.5479506E-1,2.1686718E-1,7.503812E-1,1.3624928E0,4.456608E0,2.0623648E-1,-8.516459E-1,1.6134531E0,3.6281484E-1,5.763367E-1,1.0201407E-1,6.4430475E-1,1.3571965E0,1.2682967E0,2.658023E0,3.026762E0,5.8530397E0,-7.647949E-2,1.3720442E0,-6.3013816E-1,-2.480741E0,1.2703373E0,4.857991E0,-4.3702698E-1,3.9701238E-1,2.8801093E-1,1.8898383E0,-8.6880904E-1,1.8781403E-1,8.4870654E-1,4.156542E-1,1.4770012E0,7.9574585E-2,1.0588864E0,1.96393E0,9.3426186E-1,5.0100994E0,1.0569117E-1,-2.059839E0,2.394354E0,6.043208E-1,-1.1896826E0,2.9502764E-1,-3.202943E0,-2.037438E0,2.5588691E0,5.231708E-1,-3.05882E-1,-1.568773E0,7.977113E-1,2.719865E-1,-1.6171558E-1,6.630397E-1,-1.4662416E0,-5.2182555E-1,2.2243655E-1,-3.2318637E-1,1.3563547E0,6.06251E-1,-1.5105775E-1,1.1788768E0,-1.4052778E0,-2.5273001E0,1.7126707E0,4.012929E0,-7.459438E-1,1.2700106E0,-1.9346371E0,-8.2126254E-1,4.156504E-1,-3.1871796E-3,-1.6126851E0,-3.0147133E0,1.5359325E0,3.0299182E0,1.1445172E0,1.5578043E-1,-8.918887E-1,-8.5914865E-2,6.0209566E-1,3.2587843E0,-1.125235E0,3.3653548E-1],"categories":[],"categories_nodes":[],"categories_segments":[],"categories_sizes":[],"default_left":[1,1,1,1,1,1,1,1,1,1,1,1,1,1,1,1,1,1,1,1,1,0,0,1,1,1,1,1,0,1,1,1,0,1,1,0,0,0,0,1,0,0,0,1,1,1,1,1,1,0,1,1,1,1,0,1,1,0,0,0,0,0,0,0,0,0,0,0,0,0,0,0,0,0,0,0,0,0,0,0,0,0,0,0,0,0,0,0,0],"id":16,"left_children":[1,3,5,7,9,11,13,15,17,19,21,23,25,27,29,31,33,35,37,39,41,-1,-1,43,45,47,49,51,-1,53,55,57,-1,59,61,-1,-1,-1,-1,63,-1,-1,-1,65,67,69,71,73,75,-1,77,79,81,83,-1,85,87,-1,-1,-1,-1,-1,-1,-1,-1,-1,-1,-1,-1,-1,-1,-1,-1,-1,-1,-1,-1,-1,-1,-1,-1,-1,-1,-1,-1,-1,-1,-1,-1],"loss_changes":[5.580188E1,2.0996722E2,1.4353223E2,1.9021252E1,1.0441211E2,1.7711209E2,2.4762457E2,1.719883E1,4.275055E0,1.6276276E1,6.2444153E0,2.7696262E2,6.8803925E1,1.8419485E2,5.9227844E1,3.7706062E1,2.6651485E1,2.9187908E0,1.566185E0,2.0062698E1,3.5863434E1,0E0,0E0,2.4482451E2,1.27268616E2,8.990814E1,8.377533E-1,1.4884991E2,0E0,1.2729769E1,1.0353543E2,1.4274694E1,0E0,4.6246567E0,5.25568E0,0E0,0E0,0E0,0E0,1.5200424E1,0E0,0E0,0E0,1.7128796E2,1.388942E1,7.036206E1,8.633879E1,2.805243E1,2.375443E0,0E0,2.1949234E0,2.281189E1,2.264938E1,1.0364454E1,0E0,2.3489865E2,1.4287766E2,0E0,0E0,0E0,0E0,0E0,0E0,0E0,0E0,0E0,0E0,0E0,0E0,0E0,0E0,0E0,0E0,0E0,0E0,0E0,0E0,0E0,0E0,0E0,0E0,0E0,0E0,0E0,0E0,0E0,0E0,0E0,0E0],"parents":[2147483647,0,0,1,1,2,2,3,3,4,4,5,5,6,6,7,7,8,8,9,9,10,10,11,11,12,12,13,13,14,14,15,15,16,16,17,17,18,18,19,19,20,20,23,23,24,24,25,25,26,26,27,27,29,29,30,30,31,31,33,33,34,34,39,39,43,43,44,44,45,45,46,46,47,47,48,48,50,50,51,51,52,52,53,53,55,55,56,56],"right_children":[2,4,6,8,10,12,14,16,18,20,22,24,26,28,30,32,34,36,38,40,42,-1,-1,44,46,48,50,52,-1,54,56,58,-1,60,62,-1,-1,-1,-1,64,-1,-1,-1,66,68,70,72,74,76,-1,78,80,82,84,-1,86,88,-1,-1,-1,-1,-1,-1,-1,-1,-1,-1,-1,-1,-1,-1,-1,-1,-1,-1,-1,-1,-1,-1,-1,-1,-1,-1,-1,-1,-1,-1,-1,-1],"split_conditions":[1.115E2,1.165E2,2.125E2,1.145E2,1.55E2,2.005E2,2.025E2,9.6E1,1.03E2,1.095E2,1.585E2,1.825E2,2.07E2,2.495E2,2.205E2,1.045E2,1.015E2,1.155E2,1.105E2,1.465E2,1.24E2,9.0802866E-1,1.755912E0,1.725E2,1.815E2,2.055E2,2.08E2,2.195E2,1.4573975E0,2.18E2,2.59E2,9.15E1,5.669515E-1,9.75E1,1.095E2,2.5461197E-1,1.2469627E-1,4.4310036E-1,2.3872377E-2,1.225E2,5.8917904E-1,2.8027856E-1,1.50303E0,1.705E2,1.77E2,1.895E2,1.935E2,1.955E2,2.015E2,-9.6088296E-1,2.17E2,2.145E2,2.275E2,2.155E2,-4.7063193E-1,2.945E2,2.675E2,-4.8514675E-2,1.9891192E-1,-4.398725E-1,-1.5654767E-1,6.673097E-2,-9.695592E-2,4.0690643E-1,1.818753E-1,-4.5317326E-2,3.5366303E-1,-4.2158338E-1,-7.581901E-1,5.138012E-1,1.2038788E0,-2.2378315E-1,3.810032E-1,-5.8039117E-1,-2.4637876E-1,1.2469512E-1,-9.561539E-4,-4.8380554E-1,-9.04414E-1,4.607798E-1,9.089755E-1,3.4335518E-1,4.6734132E-2,-2.6756662E-1,-2.577446E-2,1.806287E-1,9.776353E-1,-3.375705E-1,1.0096065E-1],"split_indices":[0,1,1,1,1,0,0,0,0,0,1,1,0,1,1,1,1,1,0,1,1,0,0,0,0,1,1,1,0,0,0,1,0,1,0,0,0,0,0,1,0,0,0,1,0,1,1,1,0,0,0,1,1,1,0,1,1,0,0,0,0,0,0,0,0,0,0,0,0,0,0,0,0,0,0,0,0,0,0,0,0,0,0,0,0,0,0,0,0],"split_type":[0,0,0,0,0,0,0,0,0,0,0,0,0,0,0,0,0,0,0,0,0,0,0,0,0,0,0,0,0,0,0,0,0,0,0,0,0,0,0,0,0,0,0,0,0,0,0,0,0,0,0,0,0,0,0,0,0,0,0,0,0,0,0,0,0,0,0,0,0,0,0,0,0,0,0,0,0,0,0,0,0,0,0,0,0,0,0,0,0],"sum_hessian":[4.028E3,6.67E2,3.361E3,4.96E2,1.71E2,1.033E3,2.328E3,4.17E2,7.9E1,1.6E2,1.1E1,8.39E2,1.94E2,1.7E2,2.158E3,1E2,3.17E2,6.9E1,1E1,1.51E2,9E0,7E0,4E0,6.76E2,1.63E2,1.72E2,2.2E1,1.55E2,1.5E1,8.8E1,2.07E3,8.3E1,1.7E1,2.5E1,2.92E2,3.5E1,3.4E1,9E0,1E0,1.18E2,3.3E1,6E0,3E0,6.2E2,5.6E1,6.9E1,9.4E1,1.07E2,6.5E1,6E0,1.6E1,5.6E1,9.9E1,8E1,8E0,4.91E2,1.579E3,3.8E1,4.5E1,8E0,1.7E1,2.74E2,1.8E1,7E1,4.8E1,5.01E2,1.19E2,2.5E1,3.1E1,5E1,1.9E1,3.1E1,6.3E1,3.4E1,7.3E1,4.6E1,1.9E1,1.3E1,3E0,1.9E1,3.7E1,3.6E1,6.3E1,2.1E1,5.9E1,4.56E2,3.5E1,6.9E1,1.51E3],"tree_param":{"num_deleted":"0","num_feature":"2","num_nodes":"89","size_leaf_vector":"0"}},{"base_weights":[2.6081556E-1,2.4962045E-1,1.1291382E0,2.6262417E-1,-1.3132676E0,2.1733503E0,4.1497745E-2,4.233822E-1,2.023814E-1,-1.0149733E0,-2.48643E0,1.0108312E0,2.9584758E0,-1.0700239E0,2.2599301E0,2.5227782E-1,2.7685094E0,-1.7039895E0,2.4088363E-1,-1.5466365E0,-6.336806E-1,3.496806E0,1.8436977E0,-1.6510113E0,-1.3741302E-1,4.7048035E0,-6.3692933E-1,3.3604446E-1,-1.7728055E0,5.0475597E0,1.8132534E0,-2.180383E0,-1.3175944E0,-1.0645034E-1,3.231134E-1,-8.340079E-1,-1.9973646E-1,7.382355E-1,2.4882355E0,-2.2882137E0,-1.1260338E0,5.357971E-1,-1.4380289E0,-1.0641073E0,2.5583904E-3,1.3651863E-1,1.2475382E0,-2.1997154E0,-7.169371E-1,3.3416188E0,6.589933E0,1.1642108E0,3.720753E0,-1.4674083E0,-3.7389502E-1,2.41996E-1,-6.9069225E-1,1.0921762E0,2.5099713E-1,-6.3744865E-2,-5.07843E-1,-1.0469564E-1,8.822174E-1,7.519188E-1,-7.480812E-1],"categories":[],"categories_nodes":[],"categories_segments":[],"categories_sizes":[],"default_left":[1,1,1,1,1,1,1,1,1,1,0,0,1,1,1,1,1,1,1,0,1,0,1,1,1,0,1,1,1,1,1,0,1,1,1,0,1,0,0,0,0,1,0,0,1,0,0,0,0,0,0,0,0,0,0,0,0,0,0,0,0,0,0,0,0],"id":17,"left_children":[1,3,5,7,9,11,13,15,17,19,-1,-1,21,23,25,27,29,31,33,-1,35,-1,37,39,41,-1,43,45,47,49,51,-1,53,55,57,-1,59,-1,-1,-1,-1,61,-1,-1,63,-1,-1,-1,-1,-1,-1,-1,-1,-1,-1,-1,-1,-1,-1,-1,-1,-1,-1,-1,-1],"loss_changes":[3.888388E1,8.121152E1,5.783191E1,3.813907E1,9.024609E0,2.0740288E1,6.65299E1,4.3065765E2,2.1128726E2,4.6960697E0,0E0,0E0,2.5547333E0,9.526163E0,6.673872E1,1.7073907E2,1.4977405E2,7.6194916E0,8.049129E1,0E0,1.3981743E0,0E0,3.1506786E0,1.1030788E0,7.775194E0,0E0,1.3685973E0,1.7514906E2,1.6453384E1,3.323413E1,6.128482E1,0E0,4.258236E0,1.100987E2,1.2606822E2,0E0,2.6092693E-1,0E0,0E0,0E0,0E0,1.4236425E0,0E0,0E0,2.2499952E0,0E0,0E0,0E0,0E0,0E0,0E0,0E0,0E0,0E0,0E0,0E0,0E0,0E0,0E0,0E0,0E0,0E0,0E0,0E0,0E0],"parents":[2147483647,0,0,1,1,2,2,3,3,4,4,5,5,6,6,7,7,8,8,9,9,12,12,13,13,14,14,15,15,16,16,17,17,18,18,20,20,22,22,23,23,24,24,26,26,27,27,28,28,29,29,30,30,32,32,33,33,34,34,36,36,41,41,44,44],"right_children":[2,4,6,8,10,12,14,16,18,20,-1,-1,22,24,26,28,30,32,34,-1,36,-1,38,40,42,-1,44,46,48,50,52,-1,54,56,58,-1,60,-1,-1,-1,-1,62,-1,-1,64,-1,-1,-1,-1,-1,-1,-1,-1,-1,-1,-1,-1,-1,-1,-1,-1,-1,-1,-1,-1],"split_conditions":[7.145E2,6.865E2,7.24E2,1.55E2,7.07E2,7.215E2,8.495E2,1.555E2,1.655E2,6.765E2,-7.45929E-1,3.032494E-1,6.865E2,7.76E2,8.48E2,1.385E2,1.475E2,1.615E2,2.105E2,-4.6399096E-1,6.965E2,1.0490419E0,7.335E2,7.62E2,7.905E2,1.4114411E0,1.045E3,1.235E2,1.485E2,1.17E2,1.805E2,-6.541149E-1,1.665E2,1.895E2,2.035E2,-2.502024E-1,7.095E2,2.2147065E-1,7.464707E-1,-6.8646413E-1,-3.3781016E-1,7.845E2,-4.314087E-1,-3.192322E-1,1.1125E3,4.095559E-2,3.7426147E-1,-6.599146E-1,-2.1508114E-1,1.0024856E0,1.97698E0,3.4926325E-1,1.116226E0,-4.402225E-1,-1.1216851E-1,7.259881E-2,-2.0720768E-1,3.2765287E-1,7.5299144E-2,-1.9123461E-2,-1.5235291E-1,-3.1408694E-2,2.6466525E-1,2.2557564E-1,-2.2442438E-1],"split_indices":[1,0,0,0,0,1,1,1,1,1,0,0,0,1,0,0,0,1,1,0,1,0,1,1,0,0,0,1,1,0,1,0,0,0,0,0,1,0,0,0,0,1,0,0,0,0,0,0,0,0,0,0,0,0,0,0,0,0,0,0,0,0,0,0,0],"split_type":[0,0,0,0,0,0,0,0,0,0,0,0,0,0,0,0,0,0,0,0,0,0,0,0,0,0,0,0,0,0,0,0,0,0,0,0,0,0,0,0,0,0,0,0,0,0,0,0,0,0,0,0,0,0,0,0,0,0,0,0,0,0,0,0,0],"sum_hessian":[4.028E3,3.978E3,5E1,3.946E3,3.2E1,2.5E1,2.5E1,1.074E3,2.872E3,2.7E1,5E0,1.1E1,1.4E1,1.7E1,8E0,1.002E3,7.2E1,5.6E1,2.816E3,1E1,1.7E1,8E0,6E0,1E1,7E0,4E0,4E0,9.63E2,3.9E1,2E1,5.2E1,2.3E1,3.3E1,5.39E2,2.277E3,1.1E1,6E0,3E0,3E0,3E0,7E0,5E0,2E0,2E0,2E0,7.91E2,1.72E2,2.7E1,1.2E1,1.1E1,9E0,4E1,1.2E1,2.8E1,5E0,3.38E2,2.01E2,1.94E2,2.083E3,5E0,1E0,2E0,3E0,1E0,1E0],"tree_param":{"num_deleted":"0","num_feature":"2","num_nodes":"65","size_leaf_vector":"0"}},{"base_weights":[1.8346432E-1,2.1703024E-1,-5.9972018E-2,2.0611764E-1,1.3017914E1,-8.301968E-1,2.4828926E-1,1.8911976E-1,2.3307762E0,-2.9710934E0,-6.24608E-1,2.1401775E0,1.5125215E-1,2.0642956E-1,-5.6570244E-1,1.7789005E0,3.7322748E0,-3.3314989E0,-1.417408E0,9.9910045E-1,-9.317022E-1,1.4025412E0,2.516269E0,-4.838572E-1,4.4457242E-1,1.7467399E-1,2.896523E0,-2.270613E0,-2.5390875E-2,2.9958344E0,1.5074154E0,-1.00889586E-1,1.8325005E0,-1.9766215E0,-5.971831E-1,-2.376024E-1,-1.8541903E0,1.0558681E0,-1.09773055E-1,1.8594648E-1,-3.6596603E0,5.636367E0,1.5210056E0,-2.9412649E0,-1.1986372E0,-3.6667278E-1,6.4213055E-1,8.8855577E-1,1.8459421E0,5.82592E-1,-4.770377E-1,1.0963573E0,2.6438293E0,-2.8821957E0,-1.5608394E0,5.66693E-3,-1.8700765E0,-7.5403893E-1,-6.2013377E-2,-1.1692988E0,-2.3929195E0,6.5100783E-1,1.929795E0,-2.532165E-1,1.7034361E0],"categories":[],"categories_nodes":[],"categories_segments":[],"categories_sizes":[],"default_left":[1,1,1,1,0,1,1,1,1,1,1,1,1,1,1,1,0,0,0,1,1,0,0,1,1,1,1,1,1,0,1,1,1,1,1,1,1,1,1,0,0,0,0,0,0,0,0,0,0,0,0,0,0,0,0,0,0,0,0,0,0,0,0,0,0],"id":18,"left_children":[1,3,5,7,-1,9,11,13,15,17,19,21,23,25,27,29,-1,-1,-1,31,33,-1,-1,35,37,39,41,43,45,-1,47,49,51,53,55,57,59,61,63,-1,-1,-1,-1,-1,-1,-1,-1,-1,-1,-1,-1,-1,-1,-1,-1,-1,-1,-1,-1,-1,-1,-1,-1,-1,-1],"loss_changes":[3.293463E1,4.9196216E2,1.1630963E2,1.27369095E2,0E0,5.976445E1,6.3930466E1,4.600392E1,1.5017349E1,1.9973755E0,6.525432E1,1.1869507E0,6.2436123E1,2.928451E2,7.27158E1,2.7523804E0,0E0,0E0,0E0,1.9436247E1,3.692006E1,0E0,0E0,3.532926E1,7.77169E1,1.4742096E2,1.4217517E2,1.0134018E1,1.4132044E1,0E0,2.5497894E0,2.8488216E0,4.268467E0,5.290909E0,6.446916E1,8.2051735E0,3.1054955E0,3.7309883E1,3.1902588E1,0E0,0E0,0E0,0E0,0E0,0E0,0E0,0E0,0E0,0E0,0E0,0E0,0E0,0E0,0E0,0E0,0E0,0E0,0E0,0E0,0E0,0E0,0E0,0E0,0E0,0E0],"parents":[2147483647,0,0,1,1,2,2,3,3,5,5,6,6,7,7,8,8,9,9,10,10,11,11,12,12,13,13,14,14,15,15,19,19,20,20,23,23,24,24,25,25,26,26,27,27,28,28,30,30,31,31,32,32,33,33,34,34,35,35,36,36,37,37,38,38],"right_children":[2,4,6,8,-1,10,12,14,16,18,20,22,24,26,28,30,-1,-1,-1,32,34,-1,-1,36,38,40,42,44,46,-1,48,50,52,54,56,58,60,62,64,-1,-1,-1,-1,-1,-1,-1,-1,-1,-1,-1,-1,-1,-1,-1,-1,-1,-1,-1,-1,-1,-1,-1,-1,-1,-1],"split_conditions":[5.1E2,5.825E2,6.085E2,5.155E2,3.9053743E0,5.265E2,6.05E2,4.78E2,5.29E2,5.235E2,5.47E2,6.125E2,6.325E2,4.42E2,4.805E2,4.79E2,1.1196824E0,-9.994497E-1,-4.2522243E-1,5.38E2,5.675E2,4.2076236E-1,7.548807E-1,6.325E2,6.705E2,4.265E2,4.37E2,4.765E2,5.02E2,8.9875036E-1,5.175E2,5.215E2,5.615E2,5.545E2,5.865E2,6.205E2,6.445E2,6.63E2,8.495E2,5.5783946E-2,-1.0978981E0,1.6909101E0,4.5630172E-1,-8.823795E-1,-3.595912E-1,-1.1000184E-1,1.9263917E-1,2.6656675E-1,5.5378264E-1,1.7477761E-1,-1.4311132E-1,3.2890722E-1,7.931488E-1,-8.646588E-1,-4.6825185E-1,1.7000792E-3,-5.61023E-1,-2.2621168E-1,-1.8604014E-2,-3.5078964E-1,-7.178759E-1,1.9530235E-1,5.7893854E-1,-7.596496E-2,5.1103085E-1],"split_indices":[0,1,1,1,0,1,0,0,1,1,0,1,1,1,1,0,0,0,0,1,1,0,0,0,0,0,0,1,1,0,1,0,1,1,0,1,0,1,1,0,0,0,0,0,0,0,0,0,0,0,0,0,0,0,0,0,0,0,0,0,0,0,0,0,0],"split_type":[0,0,0,0,0,0,0,0,0,0,0,0,0,0,0,0,0,0,0,0,0,0,0,0,0,0,0,0,0,0,0,0,0,0,0,0,0,0,0,0,0,0,0,0,0,0,0,0,0,0,0,0,0,0,0,0,0,0,0,0,0,0,0,0,0],"sum_hessian":[4.028E3,3.54E3,4.88E2,3.538E3,2E0,1.39E2,3.49E2,3.511E3,2.7E1,1.1E1,1.28E2,1.6E1,3.33E2,3.433E3,7.8E1,2.1E1,6E0,8E0,3E0,2E1,1.08E2,7E0,9E0,1.05E2,2.28E2,3.394E3,3.9E1,1.8E1,6E1,2E0,1.9E1,9E0,1.1E1,2.5E1,8.3E1,9E1,1.5E1,1.08E2,1.2E2,3.385E3,9E0,1.2E1,2.7E1,1E1,8E0,4E1,2E1,8E0,1.1E1,3E0,6E0,7E0,4E0,6E0,1.9E1,5.7E1,2.6E1,2.2E1,6.8E1,8E0,7E0,7.5E1,3.3E1,1.12E2,8E0],"tree_param":{"num_deleted":"0","num_feature":"2","num_nodes":"65","size_leaf_vector":"0"}},{"base_weights":[1.2981252E-1,3.023493E-1,8.947725E-2,2.5945494E-2,9.673301E-1,-3.3516833E-1,1.5361373E-1,1.17748514E-1,-1.0653795E0,8.964542E-1,3.393079E0,-3.90389E-2,-7.7741385E-1,1.0364954E0,1.043253E-1,-4.5658566E-2,2.7179587E-1,-1.4962445E0,-4.0776825E-1,6.515969E-1,1.5059865E0,-2.4468093E-1,2.8906322E0,-1.835931E0,-4.2130885E-1,8.049116E-1,2.800951E0,-1.4000835E0,1.4741641E-1,6.816957E-1,-1.5523252E-1,6.5933317E-1,1.5805107E-1,-6.965974E-1,1.4562008E-1,5.18721E-1,1.0874896E0,8.1209946E-1,4.649272E0,-9.792036E-1,-3.8499974E-2,5.113078E0,1.8134888E0,-3.338693E0,-1.5503387E0,1.1111104E0,-6.7751116E-1,4.5639443E0,7.1338123E-1,1.7808446E0,3.1954775E0,-8.813427E-1,-1.7866812E0,9.131746E-1,9.815361E-2,-3.299468E-2,4.5476227E0,-1.779553E0,-9.9283606E-2,8.444463E-1,-8.099834E-1,-7.8352094E-1,2.970386E-1,-4.8495483E-1,3.315417E-1,8.598015E-1,5.201462E-2,5.168428E-1,1.5765932E0,-1.3686134E0,-7.572986E-1,2.7159178E-1,-8.8897735E-1,9.4187164E-1,1.9807869E0,-5.764262E-1,-1.5884331E0,1.317556E0,-4.2911783E-1,-5.8874196E-1,-2.1476429E0,1.919687E-1,1.0188901E0,-1.9099907E0,-4.3462983E-1,-2.34836E0,-1.3876611E0,7.619584E-1,2.8647044E0,-5.0624007E-1,1.4985451E-1],"categories":[],"categories_nodes":[],"categories_segments":[],"categories_sizes":[],"default_left":[1,1,1,1,1,1,1,1,1,1,0,1,1,1,1,1,1,0,1,1,1,1,1,1,1,1,1,1,1,1,1,1,1,0,1,1,0,1,0,1,1,0,1,0,1,1,1,0,1,0,0,1,1,1,1,0,0,0,0,0,0,0,0,0,0,0,0,0,0,0,0,0,0,0,0,0,0,0,0,0,0,0,0,0,0,0,0,0,0,0,0],"id":19,"left_children":[1,3,5,7,9,11,13,15,17,19,-1,21,23,25,27,29,31,-1,33,35,37,39,41,43,45,47,49,51,53,55,57,59,61,-1,63,65,-1,67,-1,69,71,-1,73,-1,75,77,79,-1,81,-1,-1,83,85,87,89,-1,-1,-1,-1,-1,-1,-1,-1,-1,-1,-1,-1,-1,-1,-1,-1,-1,-1,-1,-1,-1,-1,-1,-1,-1,-1,-1,-1,-1,-1,-1,-1,-1,-1,-1,-1],"loss_changes":[2.801204E1,1.4021677E2,8.902914E1,5.422639E1,3.5469955E1,5.6152317E1,1.2343337E2,1.2573454E1,1.1290234E1,3.1704102E1,0E0,1.5614285E2,6.406074E1,5.903839E1,1.7459006E2,1.9472696E1,1.122444E1,0E0,2.9784632E0,8.587196E0,1.3145158E2,3.661189E1,3.1423676E1,1.3278503E1,5.1792007E1,4.284897E1,1.1511688E0,1.34661255E1,9.859475E1,8.856415E1,1.9089659E1,1.6459398E1,2.6406094E1,0E0,9.814453E-1,1.9534966E1,0E0,1.0922684E1,0E0,3.5433846E0,5.0349384E1,0E0,3.0014038E-2,0E0,4.942093E-1,6.6068783E0,1.335186E1,0E0,2.0831505E1,0E0,0E0,1.4793211E1,6.154358E0,4.4443497E1,7.691395E1,0E0,0E0,0E0,0E0,0E0,0E0,0E0,0E0,0E0,0E0,0E0,0E0,0E0,0E0,0E0,0E0,0E0,0E0,0E0,0E0,0E0,0E0,0E0,0E0,0E0,0E0,0E0,0E0,0E0,0E0,0E0,0E0,0E0,0E0,0E0,0E0],"parents":[2147483647,0,0,1,1,2,2,3,3,4,4,5,5,6,6,7,7,8,8,9,9,11,11,12,12,13,13,14,14,15,15,16,16,18,18,19,19,20,20,21,21,22,22,23,23,24,24,25,25,26,26,27,27,28,28,29,29,30,30,31,31,32,32,34,34,35,35,37,37,39,39,40,40,42,42,44,44,45,45,46,46,48,48,51,51,52,52,53,53,54,54],"right_children":[2,4,6,8,10,12,14,16,18,20,-1,22,24,26,28,30,32,-1,34,36,38,40,42,44,46,48,50,52,54,56,58,60,62,-1,64,66,-1,68,-1,70,72,-1,74,-1,76,78,80,-1,82,-1,-1,84,86,88,90,-1,-1,-1,-1,-1,-1,-1,-1,-1,-1,-1,-1,-1,-1,-1,-1,-1,-1,-1,-1,-1,-1,-1,-1,-1,-1,-1,-1,-1,-1,-1,-1,-1,-1,-1,-1],"split_conditions":[1.17E2,1.165E2,1.715E2,1.135E2,1.565E2,1.505E2,1.725E2,1.075E2,1.145E2,1.095E2,1.0179237E0,1.54E2,1.625E2,1.855E2,1.885E2,8.1E1,1.095E2,-4.4887337E-1,1.155E2,1.475E2,1.265E2,1.195E2,1.43E2,1.515E2,1.605E2,1.47E2,1.875E2,1.845E2,2.005E2,8.65E1,8.9E1,1.035E2,1.105E2,-2.0897923E-1,1.155E2,1.225E2,3.262469E-1,1.215E2,1.3947816E0,1.175E2,1.33E2,1.5339235E0,1.585E2,-1.0016079E0,1.53E2,1.705E2,1.725E2,1.3691833E0,1.765E2,5.342534E-1,9.5864326E-1,1.755E2,1.805E2,2.465E2,2.125E2,-9.898405E-3,1.3642869E0,-5.338659E-1,-2.9785084E-2,2.533339E-1,-2.4299502E-1,-2.350563E-1,8.911159E-2,-1.4548646E-1,9.946251E-2,2.5794044E-1,1.5604386E-2,1.5505284E-1,4.7297797E-1,-4.1058403E-1,-2.2718959E-1,8.147754E-2,-2.666932E-1,2.825615E-1,5.942361E-1,-1.7292787E-1,-4.7652996E-1,3.9526683E-1,-1.2873535E-1,-1.766226E-1,-6.442929E-1,5.759061E-2,3.0566704E-1,-5.729972E-1,-1.3038896E-1,-7.0450807E-1,-4.1629836E-1,2.2858754E-1,8.5941136E-1,-1.5187202E-1,4.4956356E-2],"split_indices":[0,1,1,0,1,0,0,1,1,0,0,1,1,1,1,0,1,0,1,1,1,1,0,1,0,0,1,0,0,1,1,0,1,0,0,1,0,1,0,1,0,0,1,0,0,1,0,0,1,0,0,1,1,1,1,0,0,0,0,0,0,0,0,0,0,0,0,0,0,0,0,0,0,0,0,0,0,0,0,0,0,0,0,0,0,0,0,0,0,0,0],"split_type":[0,0,0,0,0,0,0,0,0,0,0,0,0,0,0,0,0,0,0,0,0,0,0,0,0,0,0,0,0,0,0,0,0,0,0,0,0,0,0,0,0,0,0,0,0,0,0,0,0,0,0,0,0,0,0,0,0,0,0,0,0,0,0,0,0,0,0,0,0,0,0,0,0,0,0,0,0,0,0,0,0,0,0,0,0,0,0,0,0,0,0],"sum_hessian":[4.028E3,7.62E2,3.266E3,5.39E2,2.23E2,4.28E2,2.838E3,4.98E2,4.1E1,2.18E2,5E0,2.57E2,1.71E2,1.49E2,2.689E3,2.42E2,2.56E2,2.4E1,1.7E1,1.57E2,6.1E1,2.41E2,1.6E1,4.2E1,1.29E2,1.33E2,1.6E1,7.4E1,2.615E3,3.1E1,2.11E2,5.7E1,1.99E2,1.1E1,6E0,1.22E2,3.5E1,5.1E1,1E1,5.2E1,1.89E2,4E0,1.2E1,5E0,3.7E1,1.8E1,1.11E2,2E0,1.31E2,6E0,1E1,3.3E1,4.1E1,1.57E2,2.458E3,2.7E1,4E0,6E0,2.05E2,5.1E1,6E0,2.5E1,1.74E2,1E0,5E0,7E1,5.2E1,3.8E1,1.3E1,1.7E1,3.5E1,1.39E2,5E1,3E0,9E0,2E0,3.5E1,1.6E1,2E0,1.06E2,5E0,4.9E1,8.2E1,9E0,2.4E1,1.5E1,2.6E1,1.47E2,1E1,1.93E2,2.265E3],"tree_param":{"num_deleted":"0","num_feature":"2","num_nodes":"91","size_leaf_vector":"0"}},{"base_weights":[9.219617E-2,1.4044385E-1,-2.3578366E-2,7.643921E-2,1.6586372E0,-1.398954E0,7.583774E-2,1.0459548E-1,-2.9012883E-1,4.809489E0,1.471694E0,-8.355544E-1,-3.7846487E0,1.1966425E0,1.610304E-2,7.102922E-2,1.2860721E0,-8.082035E-1,3.3598492E-1,1.0826293E0,2.5724323E0,-1.505624E0,-3.9025283E-1,-2.3110836E0,-4.290323E0,6.894668E-1,6.231941E0,-9.545621E-1,1.3046369E-1,1.1441133E-1,-2.1935213E-1,1.3790967E0,-5.9360886E-1,-1.6374557E0,-5.4869133E-1,4.5998633E-1,-3.6116463E-1,5.228235E-1,1.2296091E0,2.0616443E0,3.421691E0,-1.6853988E0,-1.0494446E0,-5.6624856E-2,-1.1918017E0,8.75426E-1,-1.7910461E-1,3.2706203E0,9.038612E0,-2.9573366E-1,-2.3767116E0,2.1513379E0,4.7789507E-2,5.5161055E-2,3.615591E-1,-1.5915459E0,1.767171E-1,2.2509906E0,1.1676357E0,-1.9676132E0,-1.1813401E0,-5.1309985E-1,-1.0012985E0,1.661819E-1,7.4941754E-1,-5.1656723E-1,-2.1743351E-1,3.650627E-1,8.0379486E-1,1.3566296E0,2.885225E-1,1.4257475E0,2.6804352E0,-4.8798084E-1,4.072632E-1,2.097824E-1,1.0454557E0,-1.4779663E0,9.331309E-1,-1.4806149E0,5.797511E-1,-2.8508697E0,-1.8785496E0,2.9253113E0,1.7113756E0,-1.2472246E0,1.10613555E-1],"categories":[],"categories_nodes":[],"categories_segments":[],"categories_sizes":[],"default_left":[1,1,1,1,1,1,1,1,1,0,1,1,1,1,1,1,1,1,1,1,1,1,1,0,0,1,1,1,1,1,1,1,0,1,1,1,1,1,1,1,0,0,0,1,0,1,1,0,0,1,1,1,1,0,0,0,0,0,0,0,0,0,0,0,0,0,0,0,0,0,0,0,0,0,0,0,0,0,0,0,0,0,0,0,0,0,0],"id":20,"left_children":[1,3,5,7,9,11,13,15,17,-1,19,21,23,25,27,29,31,33,35,37,39,41,43,-1,-1,45,47,49,51,53,55,57,-1,59,61,63,65,67,69,71,-1,-1,-1,73,-1,75,77,-1,-1,79,81,83,85,-1,-1,-1,-1,-1,-1,-1,-1,-1,-1,-1,-1,-1,-1,-1,-1,-1,-1,-1,-1,-1,-1,-1,-1,-1,-1,-1,-1,-1,-1,-1,-1,-1,-1],"loss_changes":[2.2508717E1,2.7622876E2,1.622732E2,2.82072E1,6.066037E1,1.0436568E2,7.4095406E1,1.004807E2,6.3524414E1,0E0,4.432344E1,1.910571E1,1.2618561E0,1.3871503E2,1.1690274E2,3.1102772E1,1.3058609E1,2.212806E1,7.8599615E0,6.186386E0,5.0918274E0,3.6351776E-1,1.0896698E1,0E0,0E0,8.555777E0,1.1995392E1,1.0329887E2,1.57281E2,3.1419811E1,1.7473955E2,9.724571E0,0E0,1.4403305E0,8.232765E-1,6.338209E0,2.0038772E-1,5.4876375E-1,7.378502E0,4.0481186E0,0E0,0E0,0E0,6.201763E0,0E0,4.6473846E0,1.5825538E1,0E0,0E0,8.073398E1,2.9117584E0,7.592911E0,7.3848335E1,0E0,0E0,0E0,0E0,0E0,0E0,0E0,0E0,0E0,0E0,0E0,0E0,0E0,0E0,0E0,0E0,0E0,0E0,0E0,0E0,0E0,0E0,0E0,0E0,0E0,0E0,0E0,0E0,0E0,0E0,0E0,0E0,0E0,0E0],"parents":[2147483647,0,0,1,1,2,2,3,3,4,4,5,5,6,6,7,7,8,8,10,10,11,11,12,12,13,13,14,14,15,15,16,16,17,17,18,18,19,19,20,20,21,21,22,22,25,25,26,26,27,27,28,28,29,29,30,30,31,31,33,33,34,34,35,35,36,36,37,37,38,38,39,39,43,43,45,45,46,46,49,49,50,50,51,51,52,52],"right_children":[2,4,6,8,10,12,14,16,18,-1,20,22,24,26,28,30,32,34,36,38,40,42,44,-1,-1,46,48,50,52,54,56,58,-1,60,62,64,66,68,70,72,-1,-1,-1,74,-1,76,78,-1,-1,80,82,84,86,-1,-1,-1,-1,-1,-1,-1,-1,-1,-1,-1,-1,-1,-1,-1,-1,-1,-1,-1,-1,-1,-1,-1,-1,-1,-1,-1,-1,-1,-1,-1,-1,-1,-1],"split_conditions":[2.8E2,2.875E2,2.965E2,2.665E2,2.39E2,2.975E2,3.12E2,2.715E2,2.795E2,1.4428467E0,3.01E2,2.855E2,3.08E2,3.26E2,3.565E2,2.175E2,2.855E2,2.715E2,2.725E2,2.64E2,3.155E2,2.825E2,2.835E2,-6.933251E-1,-1.2870969E0,2.975E2,3.085E2,3.445E2,3.55E2,2.145E2,2.525E2,2.48E2,-1.7808266E-1,2.685E2,2.735E2,2.825E2,2.855E2,2.985E2,2.725E2,2.64E2,1.0265074E0,-5.0561965E-1,-3.1483337E-1,2.905E2,-3.5754052E-1,2.995E2,3.105E2,9.8118615E-1,2.7115839E0,3.395E2,3.505E2,3.32E2,3.665E2,1.6548317E-2,1.08467735E-1,-4.774638E-1,5.301513E-2,6.752972E-1,3.5029072E-1,-5.90284E-1,-3.5440204E-1,-1.5392996E-1,-3.003896E-1,4.9854573E-2,2.2482528E-1,-1.5497017E-1,-6.523006E-2,1.0951882E-1,2.4113847E-1,4.069889E-1,8.6556755E-2,4.2772427E-1,8.041306E-1,-1.4639425E-1,1.22178964E-1,6.293473E-2,3.1363672E-1,-4.4338992E-1,2.799393E-1,-4.4418448E-1,1.7392533E-1,-8.552609E-1,-5.635649E-1,8.7759346E-1,5.134127E-1,-3.7416738E-1,3.3184066E-2],"split_indices":[0,1,1,0,0,0,0,1,1,0,1,1,0,1,1,0,1,1,0,0,1,1,0,0,0,0,0,0,0,1,1,0,0,1,0,1,1,1,0,0,0,0,0,1,0,1,1,0,0,1,1,0,1,0,0,0,0,0,0,0,0,0,0,0,0,0,0,0,0,0,0,0,0,0,0,0,0,0,0,0,0,0,0,0,0,0,0],"split_type":[0,0,0,0,0,0,0,0,0,0,0,0,0,0,0,0,0,0,0,0,0,0,0,0,0,0,0,0,0,0,0,0,0,0,0,0,0,0,0,0,0,0,0,0,0,0,0,0,0,0,0,0,0,0,0,0,0,0,0,0,0,0,0,0,0,0,0,0,0,0,0,0,0,0,0,0,0,0,0,0,0,0,0,0,0,0,0],"sum_hessian":[4.028E3,2.843E3,1.185E3,2.729E3,1.14E2,7.9E1,1.106E3,2.535E3,1.94E2,5E0,1.09E2,6.5E1,1.4E1,5.5E1,1.051E3,2.466E3,6.9E1,1.06E2,8.8E1,8.2E1,2.7E1,2.5E1,4E1,5E0,9E0,5.1E1,4E0,1.1E2,9.41E2,2.146E3,3.2E2,6.6E1,3E0,2.4E1,8.2E1,7.5E1,1.3E1,1.8E1,6.4E1,1.9E1,8E0,1.6E1,9E0,2.9E1,1.1E1,4.2E1,9E0,3E0,1E0,7.6E1,3.4E1,3.6E1,9.05E2,1.732E3,4.14E2,7.1E1,2.49E2,1.1E1,5.5E1,1.2E1,1.2E1,7.8E1,4E0,3.8E1,3.7E1,5E0,8E0,1.3E1,5E0,5.6E1,8E0,1.1E1,8E0,1.5E1,1.4E1,9E0,3.3E1,4E0,5E0,3.2E1,4.4E1,1.5E1,1.9E1,1.1E1,2.5E1,4.1E1,8.64E2],"tree_param":{"num_deleted":"0","num_feature":"2","num_nodes":"87","size_leaf_vector":"0"}},{"base_weights":[6.5487795E-2,9.187208E-2,-1.2049153E-1,8.311026E-2,1.0362233E1,-8.616426E-1,3.517265E-2,6.905478E-2,1.2764843E0,-3.3421001E0,-7.332679E-1,1.8495672E0,-3.278518E-2,9.280891E-2,-3.9212358E-1,1.0363668E0,2.5044415E0,-2.0385593E-1,-1.3389008E0,-3.919261E-1,2.3867404E-1,6.722261E-2,2.802788E0,-1.2631377E0,7.799224E-2,1.7857963E0,7.5846565E-1,-1.098577E0,4.105568E-1,-2.1518645E0,-1.0232829E0,-1.5241389E-1,-1.5759724E0,7.7327883E-1,-1.1945868E-1,5.0676644E-2,7.950043E-1,2.2588477E0,7.126615E0,-5.0602543E-1,-2.547876E0,1.7633386E0,-4.0168563E-1,4.908387E-1,1.1911103E0,-3.1323776E-1,-1.7740586E0,2.1301625E0,1.963501E-1,3.365059E-1,-3.4839675E-1,-2.1520243E0,-1.2948639E0,5.2803695E-1,1.4860466E0,-1.4119362E0,9.876828E-2],"categories":[],"categories_nodes":[],"categories_segments":[],"categories_sizes":[],"default_left":[1,1,1,1,0,1,1,1,1,0,1,0,1,1,1,1,0,1,1,1,1,1,1,1,1,0,1,1,1,0,0,1,1,1,1,0,0,0,0,0,0,0,0,0,0,0,0,0,0,0,0,0,0,0,0,0,0],"id":21,"left_children":[1,3,5,7,-1,9,11,13,15,-1,17,-1,19,21,23,25,-1,27,29,31,33,35,37,39,41,-1,43,45,47,-1,-1,49,51,53,55,-1,-1,-1,-1,-1,-1,-1,-1,-1,-1,-1,-1,-1,-1,-1,-1,-1,-1,-1,-1,-1,-1],"loss_changes":[1.97811E1,3.167033E2,5.7831017E1,5.907177E1,0E0,2.5252579E1,5.1231102E1,3.8236095E1,9.493492E0,0E0,2.665992E1,0E0,3.918788E1,2.2980685E2,7.011916E1,6.143162E0,0E0,2.5738518E1,7.804886E0,4.882149E1,4.3936596E1,3.9541286E1,5.681108E1,5.7072174E1,9.1251724E1,0E0,2.657402E0,9.523457E0,9.895573E0,0E0,0E0,1.4011122E1,1.9094696E0,1.5296955E1,3.906283E1,0E0,0E0,0E0,0E0,0E0,0E0,0E0,0E0,0E0,0E0,0E0,0E0,0E0,0E0,0E0,0E0,0E0,0E0,0E0,0E0,0E0,0E0],"parents":[2147483647,0,0,1,1,2,2,3,3,5,5,6,6,7,7,8,8,10,10,12,12,13,13,14,14,15,15,17,17,18,18,19,19,20,20,21,21,22,22,23,23,24,24,26,26,27,27,28,28,31,31,32,32,33,33,34,34],"right_children":[2,4,6,8,-1,10,12,14,16,-1,18,-1,20,22,24,26,-1,28,30,32,34,36,38,40,42,-1,44,46,48,-1,-1,50,52,54,56,-1,-1,-1,-1,-1,-1,-1,-1,-1,-1,-1,-1,-1,-1,-1,-1,-1,-1,-1,-1,-1,-1],"split_conditions":[5.015E2,5.825E2,5.79E2,5.055E2,3.10867E0,4.84E2,5.805E2,3.87E2,5.29E2,-1.0026301E0,5.665E2,5.548702E-1,6.325E2,3.905E2,4.215E2,4.86E2,7.5133246E-1,5.265E2,5.61E2,6.21E2,6.495E2,3.745E2,4.355E2,3.945E2,4.37E2,5.357389E-1,5.185E2,5.085E2,5.1E2,-6.455594E-1,-3.0698487E-1,5.94E2,6.1E2,6.63E2,6.72E2,1.52029935E-2,2.385013E-1,6.776543E-1,2.1379845E0,-1.5180764E-1,-7.643628E-1,5.290016E-1,-1.2050569E-1,1.4725162E-1,3.573331E-1,-9.3971334E-2,-5.322176E-1,6.3904876E-1,5.890503E-2,1.0095177E-1,-1.0451903E-1,-6.456073E-1,-3.884592E-1,1.5841109E-1,4.4581398E-1,-4.2358086E-1,2.9630484E-2],"split_indices":[0,1,1,1,0,1,0,0,1,0,0,0,1,1,1,0,0,1,1,0,0,1,1,0,0,0,1,0,0,0,0,0,1,1,1,0,0,0,0,0,0,0,0,0,0,0,0,0,0,0,0,0,0,0,0,0,0],"split_type":[0,0,0,0,0,0,0,0,0,0,0,0,0,0,0,0,0,0,0,0,0,0,0,0,0,0,0,0,0,0,0,0,0,0,0,0,0,0,0,0,0,0,0,0,0,0,0,0,0,0,0,0,0,0,0,0,0],"sum_hessian":[4.028E3,3.528E3,5E2,3.526E3,2E0,8.6E1,4.14E2,3.486E3,4E1,3E0,8.3E1,1.4E1,4E2,3.316E3,1.7E2,3.5E1,5E0,4.5E1,3.8E1,1.72E2,2.28E2,3.286E3,3E1,5.9E1,1.11E2,8E0,2.7E1,1.8E1,2.7E1,9E0,2.9E1,1.44E2,2.8E1,9.1E1,1.37E2,3.214E3,7.2E1,2.8E1,2E0,3.8E1,2.1E1,2.4E1,8.7E1,1.8E1,9E0,9E0,9E0,2E0,2.5E1,4.1E1,1.03E2,7E0,2.1E1,6.9E1,2.2E1,1.9E1,1.18E2],"tree_param":{"num_deleted":"0","num_feature":"2","num_nodes":"57","size_leaf_vector":"0"}},{"base_weights":[4.7156792E-2,1.8463935E-1,1.5033634E-2,3.7822694E-2,8.92657E-1,-2.9782593E-1,5.448628E-2,-6.0970746E-2,2.667634E-1,6.152371E-1,1.8061292E0,-7.213548E-2,-8.2241344E-1,1.4633683E0,3.3284735E-2,9.192055E-4,-1.0958076E0,3.2966897E-1,6.1307326E-2,4.99433E-1,2.7619507E0,8.653625E-1,3.3524206E0,-3.288568E-1,1.2131486E0,-1.4817983E0,-5.3289914E-1,3.9514484E0,1.177976E0,-8.3069414E-2,1.034045E-1,2.8153756E-1,-8.79315E-2,2.8189746E-1,6.7558825E-1,-5.0003755E-1,2.7413604E-1,2.0730674E0,3.1700855E-1,2.566343E-1,1.107915E0,-1.1356677E-1,-1.9605182E0,2.8946233E0,1.0951091E-1,-2.707997E0,-1.2192882E0,7.118572E-1,-7.2642E-1,7.968662E-1,2.402147E0,3.1684004E-2,-1.356028E0,1.5285937E0,3.7386134E-2,6.909171E-2,1.2573106E0,-7.260182E-1,-3.1202978E-2,2.5862896E-1,5.659926E-1,8.239886E-1,2.6618958E-1,-4.5387268E-2,-5.341428E-1,3.220436E-1,-6.8136595E-2,-9.4657975E-1,6.50687E-1,-4.2329502E-1,9.9530953E-1,-3.310049E0,-6.6374046E-1,3.3241653E0,1.5531019E0,-1.0967231E0,1.147613E0,-4.8230997E-1,-1.2560159E0,8.665466E-2,1.0567366E0,-8.169147E-1,-1.19859315E-1,6.023921E-1,1.4053606E0,-4.8283096E-2,7.927358E-1,-3.0076914E0,-7.3487717E-1,1.2617451E0,3.4638891E0,4.6747762E-1,-4.4189746E-4],"categories":[],"categories_nodes":[],"categories_segments":[],"categories_sizes":[],"default_left":[1,1,1,1,1,1,1,1,1,1,1,1,1,1,1,1,0,1,1,1,0,1,0,1,1,1,1,0,1,1,1,1,1,1,1,1,1,0,1,0,0,1,1,1,1,0,1,1,1,1,0,1,1,1,1,0,0,0,0,0,0,0,0,0,0,0,0,0,0,0,0,0,0,0,0,0,0,0,0,0,0,0,0,0,0,0,0,0,0,0,0,0,0],"id":22,"left_children":[1,3,5,7,9,11,13,15,17,19,21,23,25,27,29,31,-1,33,35,37,-1,39,-1,41,43,45,47,-1,49,51,53,55,57,59,61,63,65,-1,67,-1,-1,69,71,73,75,-1,77,79,81,83,-1,85,87,89,91,-1,-1,-1,-1,-1,-1,-1,-1,-1,-1,-1,-1,-1,-1,-1,-1,-1,-1,-1,-1,-1,-1,-1,-1,-1,-1,-1,-1,-1,-1,-1,-1,-1,-1,-1,-1,-1,-1],"loss_changes":[1.7790794E1,7.927916E1,4.0341255E1,1.4333355E1,3.2086205E1,4.327302E1,8.66354E1,2.8373384E1,2.4483356E0,2.3977615E1,4.073992E1,8.519863E1,2.0209503E1,2.5878677E1,2.3342545E1,1.0471742E1,0E0,2.2222166E0,5.632713E0,2.7475624E1,0E0,2.668643E0,0E0,7.530264E1,7.947977E1,7.320526E0,1.9306244E1,0E0,1.6747551E1,1.572211E2,1.6789113E2,2.0850327E1,1.1524417E1,7.1297836E-1,8.134961E-1,1.7733431E-1,5.794563E-1,0E0,3.814119E1,0E0,0E0,6.602032E1,4.155403E1,4.633316E0,3.5067852E1,0E0,1.791687E-1,2.280243E0,3.6346397E0,2.9401894E0,0E0,6.0167072E1,8.909769E1,3.642749E1,2.7772266E1,0E0,0E0,0E0,0E0,0E0,0E0,0E0,0E0,0E0,0E0,0E0,0E0,0E0,0E0,0E0,0E0,0E0,0E0,0E0,0E0,0E0,0E0,0E0,0E0,0E0,0E0,0E0,0E0,0E0,0E0,0E0,0E0,0E0,0E0,0E0,0E0,0E0,0E0],"parents":[2147483647,0,0,1,1,2,2,3,3,4,4,5,5,6,6,7,7,8,8,9,9,10,10,11,11,12,12,13,13,14,14,15,15,17,17,18,18,19,19,21,21,23,23,24,24,25,25,26,26,28,28,29,29,30,30,31,31,32,32,33,33,34,34,35,35,36,36,38,38,41,41,42,42,43,43,44,44,46,46,47,47,48,48,49,49,51,51,52,52,53,53,54,54],"right_children":[2,4,6,8,10,12,14,16,18,20,22,24,26,28,30,32,-1,34,36,38,-1,40,-1,42,44,46,48,-1,50,52,54,56,58,60,62,64,66,-1,68,-1,-1,70,72,74,76,-1,78,80,82,84,-1,86,88,90,92,-1,-1,-1,-1,-1,-1,-1,-1,-1,-1,-1,-1,-1,-1,-1,-1,-1,-1,-1,-1,-1,-1,-1,-1,-1,-1,-1,-1,-1,-1,-1,-1,-1,-1,-1,-1,-1,-1],"split_conditions":[1.17E2,1.205E2,1.675E2,1.145E2,1.035E2,1.505E2,1.635E2,1.13E2,1.12E2,1.585E2,1.265E2,1.415E2,1.605E2,1.47E2,2.585E2,9.6E1,-3.2874227E-1,1.03E2,1.155E2,1.225E2,8.2858527E-1,1.215E2,1.0057262E0,1.325E2,1.425E2,1.5E2,1.605E2,1.1854346E0,1.845E2,2.315E2,2.53E2,1.045E2,1.015E2,1.195E2,1.105E2,1.135E2,1.195E2,6.219202E-1,1.395E2,7.699029E-2,3.323745E-1,1.245E2,1.375E2,1.385E2,1.52E2,-8.1239915E-1,1.53E2,1.645E2,1.665E2,1.59E2,7.206441E-1,2.335E2,2.485E2,2.795E2,2.59E2,2.0727513E-2,3.771932E-1,-2.1780546E-1,-9.360894E-3,7.758869E-2,1.6979778E-1,2.471966E-1,7.985687E-2,-1.3616181E-2,-1.6024284E-1,9.661309E-2,-2.0440979E-2,-2.8397393E-1,1.952061E-1,-1.2698852E-1,2.9859287E-1,-9.9301475E-1,-1.9912215E-1,9.9724966E-1,4.6593058E-1,-3.2901692E-1,3.4428394E-1,-1.44693E-1,-3.768048E-1,2.59964E-2,3.1702098E-1,-2.450744E-1,-3.5957795E-2,1.8071763E-1,4.2160818E-1,-1.448493E-2,2.3782076E-1,-9.0230745E-1,-2.2046316E-1,3.7852356E-1,1.0391668E0,1.4024329E-1,-1.3256924E-4],"split_indices":[0,1,1,1,0,0,0,0,0,1,1,1,1,0,1,0,0,0,1,1,0,1,0,0,0,1,0,0,1,0,0,1,1,1,0,0,1,0,1,0,0,1,1,0,1,0,0,1,0,0,0,1,1,1,0,0,0,0,0,0,0,0,0,0,0,0,0,0,0,0,0,0,0,0,0,0,0,0,0,0,0,0,0,0,0,0,0,0,0,0,0,0,0],"split_type":[0,0,0,0,0,0,0,0,0,0,0,0,0,0,0,0,0,0,0,0,0,0,0,0,0,0,0,0,0,0,0,0,0,0,0,0,0,0,0,0,0,0,0,0,0,0,0,0,0,0,0,0,0,0,0,0,0,0,0,0,0,0,0,0,0,0,0,0,0,0,0,0,0,0,0,0,0,0,0,0,0,0,0,0,0,0,0,0,0,0,0,0,0],"sum_hessian":[4.028E3,7.62E2,3.266E3,6.32E2,1.3E2,3.65E2,2.901E3,4.42E2,1.9E2,1.01E2,2.9E1,2.56E2,1.09E2,4.2E1,2.859E3,4.18E2,2.4E1,1.45E2,4.5E1,9.7E1,4E0,1.9E1,1E1,2.14E2,4.2E1,3.2E1,7.7E1,3E0,3.9E1,1.075E3,1.784E3,1E2,3.18E2,1.29E2,1.6E1,1.2E1,3.3E1,9E0,8.8E1,6E0,1.3E1,1.9E2,2.4E1,1.6E1,2.6E1,4E0,2.8E1,1E1,6.7E1,3.1E1,8E0,9.87E2,8.8E1,7.8E1,1.706E3,8.3E1,1.7E1,2.5E1,2.93E2,1.21E2,8E0,1.1E1,5E0,1E0,1.1E1,2.9E1,4E0,1.8E1,7E1,1.49E2,4.1E1,1.1E1,1.3E1,1.1E1,5E0,1.2E1,1.4E1,2E0,2.6E1,4E0,6E0,5.8E1,9E0,2.5E1,6E0,8.94E2,9.3E1,2.3E1,6.5E1,7E1,8E0,1.37E2,1.569E3],"tree_param":{"num_deleted":"0","num_feature":"2","num_nodes":"93","size_leaf_vector":"0"}},{"base_weights":[3.4361657E-2,2.7470078E-2,5.7136613E-1,3.5245225E-2,-9.0331686E-1,1.3077537E0,-1.8699704E-1,2.1268591E-2,2.5692886E-1,-7.2699785E-1,-2.424174E0,8.884308E-1,2.318997E0,-8.4685475E-1,1.1534958E0,3.4796923E-2,-9.321073E-1,8.289876E0,1.5194708E-1,-8.400915E-1,-3.5720316E-1,1.4593995E0,6.5447617E-1,-1.2776309E0,-1.4868069E-1,3.0807068E0,-1.0044143E0,2.820473E-2,1.0768569E0,-7.432723E-1,-1.5683767E0,1.3646691E0,9.1172814E-2,-3.8922423E-1,-9.145255E-1,-1.5450287E-1,-7.111028E-1,-1.7971306E0,-8.581772E-1,3.8753128E-1,-1.1715444E0,-1.263743E0,-4.1028085E-1,4.1617922E-2,-7.342401E-1,1.1135511E0,4.610443E-1,-1.6139116E0,-5.230327E-1,-1.182209E-1,2.9788288E-1,-1.3118343E0,-7.580404E-1,-2.8436127E-1,1.1342875E-1,-1.04878746E-1,6.59956E-1,3.297882E-1,-9.452095E-1],"categories":[],"categories_nodes":[],"categories_segments":[],"categories_sizes":[],"default_left":[1,1,1,1,1,1,1,1,1,1,0,1,0,1,1,1,1,0,1,1,1,0,0,1,1,0,1,1,1,1,0,0,1,0,1,1,0,0,0,1,0,0,1,0,0,0,0,0,0,0,0,0,0,0,0,0,0,0,0],"id":23,"left_children":[1,3,5,7,9,11,13,15,17,19,-1,21,-1,23,25,27,29,-1,31,33,35,-1,-1,37,39,-1,41,43,45,47,-1,-1,49,-1,51,53,-1,-1,-1,55,-1,-1,57,-1,-1,-1,-1,-1,-1,-1,-1,-1,-1,-1,-1,-1,-1,-1,-1],"loss_changes":[1.4894859E1,2.8827873E1,2.872545E1,1.2223885E1,7.0867767E0,8.964706E0,2.3974741E1,4.7934067E1,1.9607562E2,9.9638176E-1,0E0,1.7164745E0,0E0,5.2236624E0,4.0523045E1,2.5132462E1,5.0820656E0,0E0,1.6974514E1,4.1592216E-1,5.3575265E-1,0E0,0E0,8.5471153E-1,4.8417845E0,0E0,2.518897E-1,3.726641E1,6.33049E-3,7.209341E0,0E0,0E0,9.6442175E0,0E0,1.8686199E-1,2.7580693E-1,0E0,0E0,0E0,8.740833E-1,0E0,0E0,1.4993714E0,0E0,0E0,0E0,0E0,0E0,0E0,0E0,0E0,0E0,0E0,0E0,0E0,0E0,0E0,0E0,0E0],"parents":[2147483647,0,0,1,1,2,2,3,3,4,4,5,5,6,6,7,7,8,8,9,9,11,11,13,13,14,14,15,15,16,16,18,18,19,19,20,20,23,23,24,24,26,26,27,27,28,28,29,29,32,32,34,34,35,35,39,39,42,42],"right_children":[2,4,6,8,10,12,14,16,18,20,-1,22,-1,24,26,28,30,-1,32,34,36,-1,-1,38,40,-1,42,44,46,48,-1,-1,50,-1,52,54,-1,-1,-1,56,-1,-1,58,-1,-1,-1,-1,-1,-1,-1,-1,-1,-1,-1,-1,-1,-1,-1,-1],"split_conditions":[7.145E2,6.865E2,7.24E2,6.195E2,7.29E2,7.335E2,8.495E2,5.865E2,4.895E2,6.965E2,-7.2725224E-1,6.38E2,6.956991E-1,7.76E2,8.48E2,5.955E2,6.325E2,2.4869628E0,6.15E2,6.92E2,7.08E2,4.3781987E-1,1.9634286E-1,7.62E2,7.905E2,9.242121E-1,1.045E3,5.665E2,5.83E2,6.005E2,-4.7051302E-1,4.0940073E-1,6.395E2,-1.1676727E-1,6.695E2,7.045E2,-2.1333085E-1,-5.391392E-1,-2.5745317E-1,7.845E2,-3.5146335E-1,-3.7912294E-1,1.1125E3,1.24853775E-2,-2.2027205E-1,3.3406535E-1,1.383133E-1,-4.841735E-1,-1.5690982E-1,-3.5466272E-2,8.936487E-2,-3.935503E-1,-2.2741213E-1,-8.530839E-2,3.4028627E-2,-3.1463627E-2,1.979868E-1,9.893647E-2,-2.8356287E-1],"split_indices":[1,0,0,1,0,1,1,0,0,1,0,0,0,1,0,1,0,0,0,0,1,0,0,1,0,0,0,0,0,1,0,0,1,0,1,1,0,0,0,1,0,0,0,0,0,0,0,0,0,0,0,0,0,0,0,0,0,0,0],"split_type":[0,0,0,0,0,0,0,0,0,0,0,0,0,0,0,0,0,0,0,0,0,0,0,0,0,0,0,0,0,0,0,0,0,0,0,0,0,0,0,0,0,0,0,0,0,0,0,0,0,0,0,0,0,0,0,0,0,0,0],"sum_hessian":[4.028E3,3.978E3,5E1,3.946E3,3.2E1,2.5E1,2.5E1,3.713E3,2.33E2,3E1,2E0,1.9E1,6E0,1.7E1,8E0,3.662E3,5.1E1,2E0,2.31E2,2.2E1,8E0,4E0,1.5E1,1E1,7E0,4E0,4E0,3.64E3,2.2E1,4.1E1,1E1,1E1,2.21E2,4E0,1.8E1,6E0,2E0,3E0,7E0,5E0,2E0,2E0,2E0,3.578E3,6.2E1,2E1,2E0,7E0,3.4E1,1.1E2,1.11E2,3E0,1.5E1,4E0,2E0,2E0,3E0,1E0,1E0],"tree_param":{"num_deleted":"0","num_feature":"2","num_nodes":"59","size_leaf_vector":"0"}},{"base_weights":[2.432511E-2,-9.297485E-3,9.629467E-2,1.4064578E-2,-1.3516728E0,9.949348E-1,-5.0220652E-3,4.7460012E-2,-1.6539028E-1,-9.812552E-1,-3.0348015E0,6.6823715E-1,1.6635337E0,-3.4122652E-1,8.880799E-2,8.6912885E-3,8.339853E-1,-1.3770804E0,-3.390564E-3,-1.3379545E0,-6.2859416E-1,2.3308487E0,6.228569E-1,3.1077983E0,1.5136255E0,-2.8961943E-3,-1.6115065E0,5.2423325E0,6.5804765E-2,2.7224427E-2,-1.7241321E0,2.5663242E0,6.087556E-1,-3.213285E-1,-1.4872456E0,1.6620201E-1,-2.1561487E-1,-2.9519272E-1,-1.3794861E0,-6.824859E-1,-2.1545982E-1,1.3866425E-1,7.125871E-1,1.180262E0,2.2851965E0,-1.8724602E-1,1.2950424E0,-1.8309193E0,-9.3359935E-1,6.289609E-1,-3.4397896E-2,6.1998605E-3,5.317419E-1,-3.4240713E0,-5.892263E-1,-1.9854715E-1,1.075217E0,-1.0706863E0,4.268036E-2,-2.0309334E0,-1.2029057E0,-4.9075603E-2,6.333804E-1,-5.180231E-1,2.005712E-1,7.885488E-2,-5.4920197E-1,-5.620473E-1,2.8970045E-1,8.066257E-1,1.0067263E-1,5.354669E-1,1.9822657E0,2.6085818E-1,-5.809205E-1,1.8207158E0,5.738366E-1,-2.206281E0,-1.5324655E0,-2.1972656E-2,-9.9714607E-1,3.487905E-1,1.6506658E0,-9.128927E-1,4.5741796E-2],"categories":[],"categories_nodes":[],"categories_segments":[],"categories_sizes":[],"default_left":[1,1,1,1,1,1,1,1,1,1,0,1,1,1,1,1,1,1,1,1,1,0,1,0,1,1,1,0,1,1,1,0,1,1,1,1,1,0,0,0,1,1,1,1,0,1,1,1,1,1,1,0,0,0,0,0,0,0,0,0,0,0,0,0,0,0,0,0,0,0,0,0,0,0,0,0,0,0,0,0,0,0,0,0,0],"id":24,"left_children":[1,3,5,7,9,11,13,15,17,19,-1,21,23,25,27,29,31,33,35,37,39,-1,41,-1,43,45,47,-1,49,51,53,-1,55,57,59,61,63,-1,-1,-1,65,67,69,71,-1,73,75,77,79,81,83,-1,-1,-1,-1,-1,-1,-1,-1,-1,-1,-1,-1,-1,-1,-1,-1,-1,-1,-1,-1,-1,-1,-1,-1,-1,-1,-1,-1,-1,-1,-1,-1,-1,-1],"loss_changes":[9.750282E0,8.616673E1,1.1681864E2,1.619487E1,2.632473E1,2.728424E1,3.6434483E1,6.945485E1,8.3223755E1,4.190727E0,0E0,5.263237E0,4.389244E0,1.0829845E2,1.06703606E2,6.9799965E1,4.018638E1,5.3374557E0,1.3532711E1,4.1563034E-1,3.4277153E-1,0E0,3.7244987E0,0E0,7.5914154E0,4.8097446E1,6.17395E0,0E0,5.0808403E1,2.2802315E1,4.2355682E1,0E0,3.636473E1,1.6823345E0,4.513626E0,2.1050852E1,2.11222E1,0E0,0E0,0E0,4.3620816E-1,1.7503173E0,4.177025E0,1.4452408E1,0E0,3.1199203E1,8.43317E0,9.8805237E-1,8.470535E-1,3.835446E1,5.389952E1,0E0,0E0,0E0,0E0,0E0,0E0,0E0,0E0,0E0,0E0,0E0,0E0,0E0,0E0,0E0,0E0,0E0,0E0,0E0,0E0,0E0,0E0,0E0,0E0,0E0,0E0,0E0,0E0,0E0,0E0,0E0,0E0,0E0,0E0],"parents":[2147483647,0,0,1,1,2,2,3,3,4,4,5,5,6,6,7,7,8,8,9,9,11,11,12,12,13,13,14,14,15,15,16,16,17,17,18,18,19,19,20,20,22,22,24,24,25,25,26,26,28,28,29,29,30,30,32,32,33,33,34,34,35,35,36,36,40,40,41,41,42,42,43,43,45,45,46,46,47,47,48,48,49,49,50,50],"right_children":[2,4,6,8,10,12,14,16,18,20,-1,22,24,26,28,30,32,34,36,38,40,-1,42,-1,44,46,48,-1,50,52,54,-1,56,58,60,62,64,-1,-1,-1,66,68,70,72,-1,74,76,78,80,82,84,-1,-1,-1,-1,-1,-1,-1,-1,-1,-1,-1,-1,-1,-1,-1,-1,-1,-1,-1,-1,-1,-1,-1,-1,-1,-1,-1,-1,-1,-1,-1,-1,-1,-1],"split_conditions":[2.865E2,2.755E2,2.8E2,2.505E2,2.9E2,2.965E2,3.625E2,2.535E2,2.595E2,2.8E2,-9.104405E-1,2.17E2,2.39E2,3.485E2,3.36E2,2.405E2,2.06E2,2.53E2,2.665E2,2.775E2,2.855E2,6.9925463E-1,2.65E2,9.3233955E-1,3.14E2,3.525E2,3.595E2,1.5726998E0,3.685E2,2.335E2,2.435E2,7.698973E-1,2.18E2,2.47E2,2.545E2,2.705E2,2.795E2,-8.855782E-2,-4.1384584E-1,-2.0474577E-1,2.83E2,2.88E2,2.725E2,2.64E2,6.85559E-1,2.975E2,3.32E2,3.515E2,3.55E2,3.845E2,3.955E2,1.8599582E-3,1.5952258E-1,-1.0272214E0,-1.767679E-1,-5.9564147E-2,3.225651E-1,-3.212059E-1,1.2804109E-2,-6.0928005E-1,-3.608717E-1,-1.4722682E-2,1.9001414E-1,-1.5540692E-1,6.0171362E-2,2.3656465E-2,-1.6476059E-1,-1.686142E-1,8.6910136E-2,2.4198772E-1,3.020179E-2,1.6064008E-1,5.946797E-1,7.825746E-2,-1.7427616E-1,5.4621476E-1,1.72151E-1,-6.618843E-1,-4.5973966E-1,-6.5917973E-3,-2.9914382E-1,1.0463715E-1,4.9519974E-1,-2.7386782E-1,1.372254E-2],"split_indices":[1,0,0,0,0,1,1,1,1,1,0,0,0,0,0,0,0,0,0,0,1,0,0,0,1,1,1,0,0,1,1,0,0,1,1,1,1,0,0,0,0,1,0,0,0,0,0,1,0,1,1,0,0,0,0,0,0,0,0,0,0,0,0,0,0,0,0,0,0,0,0,0,0,0,0,0,0,0,0,0,0,0,0,0,0],"split_type":[0,0,0,0,0,0,0,0,0,0,0,0,0,0,0,0,0,0,0,0,0,0,0,0,0,0,0,0,0,0,0,0,0,0,0,0,0,0,0,0,0,0,0,0,0,0,0,0,0,0,0,0,0,0,0,0,0,0,0,0,0,0,0,0,0,0,0,0,0,0,0,0,0,0,0,0,0,0,0,0,0,0,0,0,0],"sum_hessian":[4.028E3,2.746E3,1.282E3,2.7E3,4.6E1,1.29E2,1.153E3,2.277E3,4.23E2,3.9E1,7E0,8.8E1,4.1E1,2.51E2,9.02E2,2.171E3,1.06E2,4.9E1,3.74E2,1.8E1,2.1E1,1E0,8.7E1,2E0,3.9E1,1.99E2,5.2E1,3E0,8.99E2,2.149E3,2.2E1,1.1E1,9.5E1,5E0,4.4E1,2.08E2,1.66E2,1E0,1.7E1,1.8E1,3E0,1.4E1,7.3E1,2.9E1,1E1,1.75E2,2.4E1,3.8E1,1.4E1,1.35E2,7.64E2,2.064E3,8.5E1,8E0,1.4E1,3.5E1,6E1,1E0,4E0,1.3E1,3.1E1,1.43E2,6.5E1,9.6E1,7E1,2E0,1E0,2E0,1.2E1,6.3E1,1E1,1.7E1,1.2E1,8.2E1,9.3E1,1.3E1,1.1E1,1.4E1,2.4E1,1E0,1.3E1,1.07E2,2.8E1,6.3E1,7.01E2],"tree_param":{"num_deleted":"0","num_feature":"2","num_nodes":"85","size_leaf_vector":"0"}},{"base_weights":[1.7374553E-2,1.1898008E-1,-6.360491E-3,1.2658419E-2,6.3182455E-1,-1.9510248E-1,3.25046E-2,4.3688473E-1,-1.7460102E-2,4.2981562E-1,1.2975942E0,-9.113174E-2,-1.2269071E0,7.715977E-1,-6.845929E-3,-1.9027078E-1,3.1260796E0,-1.1689885E0,2.9035708E-2,3.4084842E-1,2.0876098E0,5.551027E-1,2.365073E0,-1.8633084E-1,3.65345E-1,-8.742819E-1,-1.7297623E0,3.2096478E-1,1.8189098E0,-1.2582504E0,1.6422603E-2,7.0923615E-1,-6.320963E-1,4.888321E0,1.7239456E0,-1.7426003E0,-7.4688876E-1,6.686165E-2,-2.935992E-1,1.5004326E0,2.0672831E-1,1.7835018E-1,7.152692E-1,1.5228947E0,2.9534352E0,-4.063913E-2,-3.9089954E-1,2.8301342E0,2.751158E-1,-1.4899569E0,2.3725782E-2,-2.2553432E0,-1.4042125E0,9.296139E-1,-4.3330833E-1,1.3727205E0,2.5007899E0,-2.0886643E0,-9.464942E-1,-4.2168537E-1,2.9989576E-2,-1.1869812E0,1.8057175E0,-1.5495495E0,1.339095E-1,-9.2163086E-1,-4.155219E-1,-5.4529678E-2,1.4902934E-1,-7.844203E-1,3.270639E-2,7.503605E-1,1.7146977E0,-7.579956E-1,4.2855814E-1,3.236847E-1,1.00180306E-1,-2.0193739E-1,2.15351E0,-1.3358015E0,-2.3913278E-1,1.7529454E-2,3.9916557E-1,-2.3991902E-1,1.9685279E-1,5.782216E-1,1.171672E0,-9.3981016E-1,-1.0774536E-2,1.9894058E0,7.467453E-1,-1.0742881E0,-7.4047226E-1,-9.75854E-1,-2.8081095E-1,3.251135E-1,-6.96541E-3],"categories":[],"categories_nodes":[],"categories_segments":[],"categories_sizes":[],"default_left":[1,1,1,1,1,1,1,1,1,1,1,1,1,1,1,1,1,1,1,1,0,1,1,1,1,1,1,1,1,1,1,1,1,0,0,0,1,1,1,1,1,1,0,0,0,1,1,0,1,0,1,0,0,1,1,1,0,0,1,1,1,0,0,0,0,0,0,0,0,0,0,0,0,0,0,0,0,0,0,0,0,0,0,0,0,0,0,0,0,0,0,0,0,0,0,0,0],"id":25,"left_children":[1,3,5,7,9,11,13,15,17,19,21,23,25,27,29,31,33,35,37,39,-1,41,43,45,47,49,51,53,55,57,59,61,63,-1,-1,-1,65,67,69,71,73,75,-1,-1,-1,77,79,-1,81,-1,83,-1,-1,85,87,89,-1,-1,91,93,95,-1,-1,-1,-1,-1,-1,-1,-1,-1,-1,-1,-1,-1,-1,-1,-1,-1,-1,-1,-1,-1,-1,-1,-1,-1,-1,-1,-1,-1,-1,-1,-1,-1,-1,-1,-1],"loss_changes":[9.71714E0,4.1595703E1,2.3971336E1,8.095513E0,1.706065E1,5.974904E1,7.882211E1,7.142963E1,3.173036E1,1.4332354E1,2.2464958E1,2.214381E1,7.5309906E0,6.407381E1,7.497128E1,1.4358184E1,1.1339989E1,4.2672615E0,6.9758935E0,1.4931127E1,0E0,1.0189519E0,1.4482956E0,1.2531583E1,1.8792233E1,1.7727537E1,2.5506973E-1,4.493431E1,9.04126E0,1.0190765E1,1.5038569E1,2.7093357E1,1.7074085E1,0E0,0E0,0E0,4.8559952E-1,5.1050677E0,9.635117E0,3.2050133E-1,1.937125E1,4.7098637E-2,0E0,0E0,0E0,8.785125E1,2.4776388E1,0E0,2.7410069E0,0E0,6.862452E-1,0E0,0E0,3.9156113E0,9.406497E0,8.937225E0,0E0,0E0,1.5233612E-1,5.659151E0,2.675542E1,0E0,0E0,0E0,0E0,0E0,0E0,0E0,0E0,0E0,0E0,0E0,0E0,0E0,0E0,0E0,0E0,0E0,0E0,0E0,0E0,0E0,0E0,0E0,0E0,0E0,0E0,0E0,0E0,0E0,0E0,0E0,0E0,0E0,0E0,0E0,0E0],"parents":[2147483647,0,0,1,1,2,2,3,3,4,4,5,5,6,6,7,7,8,8,9,9,10,10,11,11,12,12,13,13,14,14,15,15,16,16,17,17,18,18,19,19,21,21,22,22,23,23,24,24,25,25,26,26,27,27,28,28,29,29,30,30,31,31,32,32,36,36,37,37,38,38,39,39,40,40,41,41,45,45,46,46,48,48,50,50,53,53,54,54,55,55,58,58,59,59,60,60],"right_children":[2,4,6,8,10,12,14,16,18,20,22,24,26,28,30,32,34,36,38,40,-1,42,44,46,48,50,52,54,56,58,60,62,64,-1,-1,-1,66,68,70,72,74,76,-1,-1,-1,78,80,-1,82,-1,84,-1,-1,86,88,90,-1,-1,92,94,96,-1,-1,-1,-1,-1,-1,-1,-1,-1,-1,-1,-1,-1,-1,-1,-1,-1,-1,-1,-1,-1,-1,-1,-1,-1,-1,-1,-1,-1,-1,-1,-1,-1,-1,-1,-1],"split_conditions":[1.17E2,1.205E2,1.805E2,8.75E1,1.035E2,1.695E2,1.875E2,8.85E1,9.85E1,1.585E2,1.255E2,1.715E2,1.77E2,1.905E2,1.955E2,7.95E1,8.2E1,9.55E1,1.145E2,1.225E2,6.2628293E-1,1.215E2,1.29E2,1.49E2,1.47E2,1.755E2,1.785E2,1.725E2,1.965E2,1.915E2,2.035E2,4.3E1,8.15E1,1.4664963E0,5.171837E-1,-5.227801E-1,9.6E1,1.085E2,1.145E2,1.215E2,1.385E2,1.135E2,2.1458077E-1,4.5686844E-1,8.860306E-1,1.465E2,1.555E2,8.4904027E-1,1.745E2,-4.4698706E-1,1.775E2,-6.7660296E-1,-4.2126375E-1,1.835E2,1.855E2,1.77E2,7.50237E-1,-6.265993E-1,1.935E2,2.005E2,2.035E2,-3.5609436E-1,5.4171526E-1,-4.6486485E-1,4.017285E-2,-2.7648926E-1,-1.2465657E-1,-1.6358905E-2,4.4708803E-2,-2.353261E-1,9.811917E-3,2.2510816E-1,5.1440936E-1,-2.273987E-1,1.2856744E-1,9.710541E-2,3.0054092E-2,-6.058122E-2,6.460531E-1,-4.0074047E-1,-7.173984E-2,5.2588363E-3,1.1974967E-1,-7.197571E-2,5.905584E-2,1.7346649E-1,3.515016E-1,-2.8194305E-1,-3.232361E-3,5.968217E-1,2.240236E-1,-3.2228646E-1,-2.2214168E-1,-2.927562E-1,-8.424329E-2,9.753405E-2,-2.0896231E-3],"split_indices":[0,1,1,0,0,0,0,1,1,1,1,1,0,1,1,0,0,1,0,1,0,1,1,0,0,1,1,0,1,1,1,0,1,0,0,0,0,1,1,1,1,0,0,0,0,1,1,0,1,0,1,0,0,1,1,0,0,0,1,0,0,0,0,0,0,0,0,0,0,0,0,0,0,0,0,0,0,0,0,0,0,0,0,0,0,0,0,0,0,0,0,0,0,0,0,0,0],"split_type":[0,0,0,0,0,0,0,0,0,0,0,0,0,0,0,0,0,0,0,0,0,0,0,0,0,0,0,0,0,0,0,0,0,0,0,0,0,0,0,0,0,0,0,0,0,0,0,0,0,0,0,0,0,0,0,0,0,0,0,0,0,0,0,0,0,0,0,0,0,0,0,0,0,0,0,0,0,0,0,0,0,0,0,0,0,0,0,0,0,0,0,0,0,0,0,0,0],"sum_hessian":[4.028E3,7.62E2,3.266E3,6.32E2,1.3E2,5.57E2,2.709E3,4.1E1,5.91E2,1.01E2,2.9E1,5.07E2,5E1,1.36E2,2.573E3,3.4E1,7E0,2.2E1,5.69E2,9.7E1,4E0,1.8E1,1.1E1,4.2E2,8.7E1,3.1E1,1.9E1,9.6E1,4E1,4.6E1,2.527E3,1.1E1,2.3E1,2E0,5E0,8E0,1.4E1,5.1E2,5.9E1,9E0,8.8E1,6E0,1.2E1,6E0,5E0,2.46E2,1.74E2,2E0,8.5E1,1.8E1,1.3E1,5E0,1.4E1,5.3E1,4.3E1,2.6E1,1.4E1,1.1E1,3.5E1,7.5E1,2.452E3,4E0,7E0,1E1,1.3E1,8E0,6E0,2.06E2,3.04E2,2.3E1,3.6E1,3E0,6E0,1.6E1,7.2E1,1E0,5E0,2.3E2,1.6E1,2.3E1,1.51E2,2.8E1,5.7E1,5E0,8E0,2.3E1,3E1,1.9E1,2.4E1,1.2E1,1.4E1,1.9E1,1.6E1,1.4E1,6.1E1,2.72E2,2.18E3],"tree_param":{"num_deleted":"0","num_feature":"2","num_nodes":"97","size_leaf_vector":"0"}},{"base_weights":[1.3022222E-2,1.8424166E-2,-3.5714236E-1,1.4758079E-2,1.3372067E0,-5.649733E-1,8.3715653E-1,-1.554166E-2,8.904293E-2,7.655284E-1,1.6860174E0,-2.490703E-1,-9.249868E-1,2.3320312E0,-8.2514954E-1,-6.256027E-3,-2.1839893E0,9.2633957E-1,7.38744E-3,-5.0074893E-1,1.0088012E0,-1.6701118E0,-4.1624603E-1,-1.018753E0,-3.5649619E-1,8.107135E-3,-5.75696E-1,2.8986614E0,8.579065E-1,-1.258497E0,3.326493E-2,-1.0254002E0,-3.769702E-1,3.487854E-1,1.33255E0,-2.7330017E-1,-1.208744E0,2.745018E-1,-8.0924606E-1,-1.1022322E-2,2.4187244E-1,-1.971077E0,-5.2618927E-1,5.7452106E-1,1.39111E0,-4.689312E-1,-2.0801263E0,7.50754E-1,-8.887632E-3,-4.605001E-1,-1.4412472E-1,-6.430855E-1,1.8835449E-1],"categories":[],"categories_nodes":[],"categories_segments":[],"categories_sizes":[],"default_left":[1,1,1,1,1,1,1,1,1,0,0,1,1,0,1,1,0,1,1,1,1,0,1,0,1,1,1,0,1,1,1,0,1,0,0,1,0,0,0,0,0,0,0,0,0,0,0,0,0,0,0,0,0],"id":26,"left_children":[1,3,5,7,9,11,13,15,17,-1,-1,19,21,-1,23,25,-1,27,29,31,33,-1,35,-1,37,39,41,-1,43,45,47,-1,49,-1,-1,51,-1,-1,-1,-1,-1,-1,-1,-1,-1,-1,-1,-1,-1,-1,-1,-1,-1],"loss_changes":[8.063003E0,1.9183971E1,1.4869282E1,8.919099E0,9.0278816E-1,5.4560814E0,2.4288727E1,5.6667503E1,7.848176E1,0E0,0E0,9.36938E0,8.023558E0,0E0,9.048319E-2,2.2938465E1,0E0,1.1280365E1,3.4339397E1,1.1720309E0,6.0362244E-1,0E0,1.3689148E0,0E0,1.0791923E0,1.223752E1,3.729412E0,0E0,1.4310982E1,1.26479E1,3.106726E1,0E0,3.420713E-1,0E0,0E0,2.5111115E0,0E0,0E0,0E0,0E0,0E0,0E0,0E0,0E0,0E0,0E0,0E0,0E0,0E0,0E0,0E0,0E0,0E0],"parents":[2147483647,0,0,1,1,2,2,3,3,4,4,5,5,6,6,7,7,8,8,11,11,12,12,14,14,15,15,17,17,18,18,19,19,20,20,22,22,24,24,25,25,26,26,28,28,29,29,30,30,32,32,35,35],"right_children":[2,4,6,8,10,12,14,16,18,-1,-1,20,22,-1,24,26,-1,28,30,32,34,-1,36,-1,38,40,42,-1,44,46,48,-1,50,-1,-1,52,-1,-1,-1,-1,-1,-1,-1,-1,-1,-1,-1,-1,-1,-1,-1,-1,-1],"split_conditions":[6.92E2,7.215E2,8.495E2,2.905E2,7.27E2,7.15E2,8.48E2,2.855E2,2.815E2,2.2965853E-1,5.0580525E-1,7.2E2,7.62E2,6.996094E-1,1.045E3,2.705E2,-6.551968E-1,2.175E2,2.975E2,6.695E2,6.96E2,-5.0103354E-1,8.16E2,-3.0562592E-1,1.1125E3,2.735E2,2.55E2,8.6959845E-1,3.01E2,2.945E2,3.265E2,-3.0762005E-1,6.965E2,1.04635626E-1,3.9976504E-1,7.76E2,-3.626232E-1,8.2350545E-2,-2.4277383E-1,-3.3066967E-3,7.256173E-2,-5.9132314E-1,-1.5785679E-1,1.7235632E-1,4.17333E-1,-1.4067936E-1,-6.240379E-1,2.2522621E-1,-2.6662897E-3,-1.3815004E-1,-4.3237418E-2,-1.9292565E-1,5.650635E-2],"split_indices":[0,1,1,1,1,0,0,0,0,0,0,1,1,0,0,0,0,0,1,1,0,0,0,0,0,1,1,0,1,0,0,0,1,0,0,1,0,0,0,0,0,0,0,0,0,0,0,0,0,0,0,0,0],"split_type":[0,0,0,0,0,0,0,0,0,0,0,0,0,0,0,0,0,0,0,0,0,0,0,0,0,0,0,0,0,0,0,0,0,0,0,0,0,0,0,0,0,0,0,0,0,0,0,0,0,0,0,0,0],"sum_hessian":[4.028E3,3.971E3,5.7E1,3.961E3,1E1,4.9E1,8E0,2.814E3,1.147E3,5E0,5E0,2.7E1,2.2E1,4E0,4E0,2.803E3,1.1E1,1.01E2,1.046E3,2.3E1,4E0,8E0,1.4E1,2E0,2E0,2.735E3,6.8E1,2E0,9.9E1,2E1,1.026E3,3E0,2E1,2E0,2E0,1.3E1,1E0,1E0,1E0,2.529E3,2.06E2,1E0,6.7E1,6.6E1,3.3E1,1.1E1,9E0,5.6E1,9.7E2,1.4E1,6E0,7E0,6E0],"tree_param":{"num_deleted":"0","num_feature":"2","num_nodes":"53","size_leaf_vector":"0"}},{"base_weights":[9.005213E-3,8.225416E-2,-1.8600727E-2,1.9010408E-2,7.1639884E-1,-4.5567575E-1,3.5184622E-3,7.329328E-2,-6.08873E-1,1.7704841E0,4.63423E-1,-3.602119E-1,-1.1308113E0,3.6410886E-1,-1.4689011E-2,-9.999473E-3,6.1141825E-1,-1.7185664E0,5.5826522E-2,1.0712293E0,2.5980558E0,-2.6254272E-1,6.433926E-1,-6.211641E-1,-2.1079141E-1,-4.746653E-1,-1.1866531E0,1.9580951E-1,7.841333E-1,-8.204663E-1,1.2939774E-2,6.1068706E-2,-1.6094588E-1,1.4013901E-1,1.435661E0,-7.610557E-1,-2.1592689E0,1.1148459E0,-8.5389817E-1,6.135731E-1,1.5892334E0,2.756583E0,7.441826E-1,3.0131245E-1,-6.8737257E-1,5.350416E-1,1.6377296E0,-8.1284857E-1,-2.576339E-1,-1.7496379E-1,-5.6454575E-1,-7.199402E-1,7.9422E-3,-1.3157508E0,-6.6530764E-1,2.6079974E-1,-1.76857E-1,6.296029E-1,1.1538582E0,-7.732573E-1,-1.9003016E0,1.2850688E0,-5.152478E-3,4.1422863E-2,5.7568324E-1,-9.405278E-1,-1.1555615E-1,-6.0124665E-1,2.4258573E-1,9.9548256E-1,1.9856166E0,-1.063563E0,4.0015158E-1,-2.9147835E0,-1.5282394E0,-5.3634006E-1,1.577597E0,-1.4889069E0,-3.5542747E-1,5.0878905E-2,5.3902626E-1,1.0390263E0,4.9105912E-1,-7.654648E-1,2.7882302E-1,-2.0443672E-1,3.9929008E-1,-1.08407974E-1,-8.795471E-1,6.274643E-2,5.44384E-1,-1.8980026E-2,-6.0627365E-1,8.158409E-1,2.5068247E-1,-1.0017389E0,-5.428243E-1,7.680087E-1,2.255188E0,-4.309264E-1,1.2531864E-2],"categories":[],"categories_nodes":[],"categories_segments":[],"categories_sizes":[],"default_left":[1,1,1,1,1,1,1,1,1,1,1,1,1,1,1,1,1,1,1,1,1,1,1,1,1,1,1,1,1,1,1,1,1,1,1,1,1,1,1,0,0,0,0,1,0,1,0,0,1,1,1,0,0,0,0,1,1,1,0,1,0,1,1,0,0,0,0,0,0,0,0,0,0,0,0,0,0,0,0,0,0,0,0,0,0,0,0,0,0,0,0,0,0,0,0,0,0,0,0,0,0],"id":27,"left_children":[1,3,5,7,9,11,13,15,17,19,21,23,25,27,29,31,33,35,37,39,41,43,45,47,49,51,53,55,57,59,61,63,65,67,69,71,73,75,77,-1,-1,-1,-1,79,-1,81,-1,-1,83,85,87,-1,-1,-1,-1,89,91,93,-1,95,-1,97,99,-1,-1,-1,-1,-1,-1,-1,-1,-1,-1,-1,-1,-1,-1,-1,-1,-1,-1,-1,-1,-1,-1,-1,-1,-1,-1,-1,-1,-1,-1,-1,-1,-1,-1,-1,-1,-1,-1],"loss_changes":[8.148595E0,4.4222954E1,2.8299093E1,3.4264275E1,2.584533E1,8.680265E0,1.8303228E1,4.1466385E1,5.910495E1,8.211872E0,1.0882362E1,4.7430153E0,5.962372E-2,9.318899E0,5.909568E1,8.613273E0,4.796642E1,1.1015999E1,5.0086185E1,1.8697023E0,2.9971695E-1,4.2793365E0,6.234421E0,2.926323E0,9.2783356E-1,3.608324E-1,1.341877E-1,2.395433E0,1.4446087E0,3.016636E0,5.9087864E1,5.496233E0,8.985262E0,6.2220564E0,8.916885E0,4.2895975E0,5.080559E0,1.9184238E1,8.333733E0,0E0,0E0,0E0,0E0,4.4882697E-1,0E0,8.419285E-1,0E0,0E0,4.8447285E0,1.3510008E0,9.104383E-1,0E0,0E0,0E0,0E0,4.6275196E0,1.005418E0,1.8419943E0,0E0,3.984108E0,0E0,1.6325954E1,1.9070175E1,0E0,0E0,0E0,0E0,0E0,0E0,0E0,0E0,0E0,0E0,0E0,0E0,0E0,0E0,0E0,0E0,0E0,0E0,0E0,0E0,0E0,0E0,0E0,0E0,0E0,0E0,0E0,0E0,0E0,0E0,0E0,0E0,0E0,0E0,0E0,0E0,0E0,0E0],"parents":[2147483647,0,0,1,1,2,2,3,3,4,4,5,5,6,6,7,7,8,8,9,9,10,10,11,11,12,12,13,13,14,14,15,15,16,16,17,17,18,18,19,19,20,20,21,21,22,22,23,23,24,24,25,25,26,26,27,27,28,28,29,29,30,30,31,31,32,32,33,33,34,34,35,35,36,36,37,37,38,38,43,43,45,45,48,48,49,49,50,50,55,55,56,56,57,57,59,59,61,61,62,62],"right_children":[2,4,6,8,10,12,14,16,18,20,22,24,26,28,30,32,34,36,38,40,42,44,46,48,50,52,54,56,58,60,62,64,66,68,70,72,74,76,78,-1,-1,-1,-1,80,-1,82,-1,-1,84,86,88,-1,-1,-1,-1,90,92,94,-1,96,-1,98,100,-1,-1,-1,-1,-1,-1,-1,-1,-1,-1,-1,-1,-1,-1,-1,-1,-1,-1,-1,-1,-1,-1,-1,-1,-1,-1,-1,-1,-1,-1,-1,-1,-1,-1,-1,-1,-1,-1],"split_conditions":[1.645E2,1.555E2,1.735E2,1.19E2,1.465E2,1.695E2,1.755E2,1.245E2,1.385E2,1.17E2,1.605E2,1.655E2,1.68E2,1.845E2,1.935E2,1.095E2,1.035E2,1.295E2,1.425E2,1.585E2,1.43E2,1.52E2,1.89E2,1.665E2,1.675E2,1.64E2,1.725E2,1.725E2,1.905E2,2.015E2,1.95E2,1.195E2,1.105E2,1.345E2,1.265E2,1.315E2,1.335E2,1.4E2,1.475E2,1.8407193E-1,4.7677004E-1,8.269749E-1,2.2325478E-1,1.595E2,-2.0621178E-1,1.52E2,4.913189E-1,-2.4385458E-1,1.555E2,1.665E2,1.69E2,-2.1598206E-1,2.38266E-3,-3.9472526E-1,-1.995923E-1,1.655E2,1.785E2,1.725E2,3.4615746E-1,1.855E2,-5.700905E-1,2.005E2,2.055E2,1.242686E-2,1.7270498E-1,-2.8215834E-1,-3.4666847E-2,-1.80374E-1,7.277572E-2,2.9864478E-1,5.95685E-1,-3.190689E-1,1.20045476E-1,-8.7443507E-1,-4.5847183E-1,-1.6090202E-1,4.7327912E-1,-4.4667208E-1,-1.0662825E-1,1.5263672E-2,1.6170788E-1,3.1170788E-1,1.4731774E-1,-2.2963944E-1,8.364691E-2,-6.133102E-2,1.1978703E-1,-3.2522395E-2,-2.6386416E-1,1.882393E-2,1.633152E-1,-5.694008E-3,-1.818821E-1,2.4475227E-1,7.5204745E-2,-3.0052167E-1,-1.6284731E-1,2.3040262E-1,6.765564E-1,-1.2927793E-1,3.7595595E-3],"split_indices":[0,1,1,0,0,0,0,1,1,0,1,1,1,1,1,0,0,0,0,1,0,0,1,0,0,1,1,0,1,0,0,1,1,1,1,1,1,1,1,0,0,0,0,1,0,0,0,0,1,0,1,0,0,0,0,0,1,0,0,1,0,1,1,0,0,0,0,0,0,0,0,0,0,0,0,0,0,0,0,0,0,0,0,0,0,0,0,0,0,0,0,0,0,0,0,0,0,0,0,0,0],"split_type":[0,0,0,0,0,0,0,0,0,0,0,0,0,0,0,0,0,0,0,0,0,0,0,0,0,0,0,0,0,0,0,0,0,0,0,0,0,0,0,0,0,0,0,0,0,0,0,0,0,0,0,0,0,0,0,0,0,0,0,0,0,0,0,0,0,0,0,0,0,0,0,0,0,0,0,0,0,0,0,0,0,0,0,0,0,0,0,0,0,0,0,0,0,0,0,0,0,0,0,0,0],"sum_hessian":[4.028E3,1.102E3,2.926E3,1.003E3,9.9E1,1.4E2,2.786E3,9.24E2,7.9E1,1.8E1,8.1E1,1.24E2,1.6E1,1.33E2,2.653E3,8.01E2,1.23E2,2.9E1,5E1,1.1E1,7E0,1.6E1,6.5E1,4.4E1,8E1,2E0,